213 100
javascript -0.09249186 0.0070010736 0.038167004 0.047891237 -0.09072224 -0.21425663 0.17350341 0.20076619 -0.065066345 -0.13542289 0.05324818 -0.109949656 -0.07027164 0.055382572 -0.05589914 -0.023811324 0.072052866 -0.1261871 -0.080976024 -0.22439994 0.03519239 0.03126732 0.07663797 0.014799084 0.03654074 -0.019940378 -0.011231438 -0.061553966 -0.15621643 -0.039739136 -0.022737363 0.09294566 0.10204097 -0.08408575 -0.073365964 0.12924187 0.09838552 -0.10774889 -0.08718769 -0.20030624 -0.08003047 -0.061409555 -0.08580817 -0.03679407 0.078498 -0.023015207 -0.05496398 0.04920155 0.097523056 0.13270107 -0.099971935 -0.0028883095 0.011807203 -0.026984293 0.09187356 0.048229586 0.02879353 -0.021650499 -0.0993893 0.1673735 -0.022838432 0.03985185 0.029680142 -0.08477996 -0.13431928 0.046577662 0.056991134 0.21843608 -0.12662023 0.18494312 0.03552705 0.09503512 0.07417894 -0.10507264 0.13361125 0.06826824 0.07686586 -0.031676978 -0.1377545 -0.019946024 -0.010901579 0.1064943 -0.032315537 0.21801813 -0.12810805 -0.011895809 0.09984803 0.13014744 0.071153305 0.003481994 0.17803821 0.08624801 0.0998168 0.11395913 0.21957825 0.14214465 0.052979838 -0.093421936 0.0043671094 0.03702299
python -0.18504643 0.039530236 0.05597723 0.042198975 0.041788127 -0.23068085 0.14249867 0.2062664 -0.06455489 -0.17934884 -0.005046628 -0.18628709 -0.09704226 0.08113131 0.010629475 0.06499272 0.122616135 -0.066708356 -0.0645833 -0.16972002 0.005755087 -0.050396856 0.11128532 -0.09375964 0.0621914 0.04064916 -0.060518075 -0.061814316 -0.12334934 0.055989794 0.12987773 0.064785965 0.03384295 -0.086006574 -0.02493759 0.1764263 0.10729739 -0.0030558188 0.002057606 -0.080801725 0.06700234 -0.1645757 -0.11450078 -0.0065554273 0.0531923 0.059406854 0.05461698 -0.035545524 0.0790603 0.08924916 0.03444274 -0.12842157 0.035745945 -0.0018967042 0.023145271 0.16477877 0.08631775 0.09347897 -0.08606582 0.18255241 -0.10179267 0.069932 0.018160533 -0.080643274 -0.09556197 0.08295089 0.14415543 0.1293642 -0.027732465 0.24034646 -0.039890993 -0.05146293 0.13969177 0.027928997 0.101236254 -0.0051401304 -0.04414389 -0.056998976 -0.070358776 0.009762163 -0.095314346 0.12557188 -0.02627753 0.10934792 -0.07584898 -0.04705361 0.062003467 0.072179705 0.123148195 -0.094501466 0.18161704 0.07683223 0.10110296 0.040381297 0.12962134 0.14047463 0.17385389 -0.06883619 -0.09244287 0.03708294
hacktoberfest -0.09254183 0.03239853 -0.0537053 -0.024436828 0.041359942 -0.107090496 0.10179995 0.16611403 -0.105164 -0.06538612 -0.03597892 -0.13386081 0.044216227 0.008983397 0.042203013 -0.060083434 0.09952445 -0.062197495 -0.09366338 -0.20549124 -0.07888667 -0.045619566 -0.0072248653 -0.06523755 0.055422377 -0.030424431 0.063209005 -0.059571538 -0.16700223 0.022821825 0.07377775 0.045997966 -0.033344466 -0.053925984 -0.13599142 0.14040135 0.0346486 -0.040750816 -0.08440453 -0.1838736 -0.057312015 -0.088317655 -0.032576624 0.0521379 0.12083976 0.017963821 0.009163664 -0.049908694 0.025612146 0.062525995 -0.033348083 -0.061654016 -0.019816691 -0.096970096 -0.046789225 0.030754851 -0.02242644 -0.00778865 -0.13746664 0.074688375 0.02572796 0.009404189 0.13741545 -0.015171908 -0.1980932 0.11257874 0.1347766 0.2352529 -0.16162601 0.22919928 0.032733228 0.08450944 0.12649812 -0.027247487 0.08165003 0.13824359 0.102309525 -0.00024704682 -0.15058948 0.04582724 0.0069748904 0.015423633 -0.14952178 0.17343853 -0.0799117 -0.067993544 0.021142224 0.109500445 0.16431062 -0.05009957 0.13912861 0.13768333 0.15548192 0.08928335 0.2272215 0.1579894 0.17248864 -0.041899417 0.06558948 -0.067844905
react -0.15794136 0.072446235 0.0011264575 -0.03278705 0.006167071 -0.20387888 0.15674616 0.2015011 0.008336394 -0.17584004 0.071354665 -0.07382813 -0.00859878 -0.0404623 0.043672156 -0.024325812 0.12425201 -0.18857068 -0.08446101 -0.122261524 -0.006878428 -0.022086035 0.09993469 0.07668462 -0.086276196 0.032218773 0.040051438 -0.08093111 -0.09913636 -0.008504126 0.033533145 0.07804759 -0.015852416 -0.049544595 -0.03635468 0.21983007 0.10928387 -0.11732371 -0.16795965 -0.10841596 0.01129938 -0.06461931 0.023058476 -0.023315081 0.14285827 -0.0032242457 0.01918589 -0.042654507 0.041875627 0.05473437 -0.015279465 -0.035441183 -0.026405906 -0.10418849 -0.007443438 0.085718684 0.008562141 0.10132819 -0.040596634 0.075817354 -0.008730056 0.08031271 0.12274049 -0.035203215 -0.105018154 -0.009151015 0.062271744 0.25519428 -0.13123898 0.114865325 0.03911595 0.011590165 0.08356423 0.028545944 0.095553614 0.034415804 -0.018120756 0.024461633 -0.1720393 0.060549535 -0.042481583 0.1337069 -0.05248121 0.20511688 -0.101939194 -0.046295702 0.12699795 0.2161907 0.08327226 -0.120701924 0.12540339 0.084127836 0.0788981 0.10772396 0.2394261 0.115189716 0.17516662 -0.10199348 -0.019600019 -0.050937824
go -0.16596138 0.017709788 -0.07365979 -0.034541555 0.014689942 -0.08540523 0.13326152 0.15488051 -0.08600901 -0.02408334 -0.069523096 -0.036284544 -0.13020132 0.028055312 -0.0724696 -0.054461546 0.014255029 -0.063269675 0.038988095 -0.20213385 -0.015079384 -0.10264275 0.10720394 0.110332265 -0.03729854 0.015038983 -0.0014021578 -0.034010384 -0.18906167 -0.0024679888 0.10250489 0.115854144 0.04595349 -0.13645507 0.04328492 0.06561571 0.003086548 -0.02174556 -0.08955205 -0.13677223 0.011830383 -0.1696134 -0.12846935 0.10212467 0.14859614 -0.098949775 0.035716277 -0.019398902 0.109249994 -0.015318212 0.0058845673 0.016496088 0.14456473 -0.077917255 0.0065620486 -0.008516425 -0.11419421 -0.07617473 -0.07901218 0.02275465 0.04742793 -0.03324165 0.086268574 -0.016046342 -0.15192296 0.017374555 0.17528185 0.2700244 -0.14207858 0.2544006 -0.06640314 0.10421601 0.04186306 -0.00070877885 0.13821808 0.13603705 -0.0057097226 0.07364394 -0.02184011 -0.06564459 -0.08832395 -0.012358806 -0.035696883 0.12463793 -0.15497512 -0.10618607 0.14469792 0.17435871 -0.018267477 -0.09862088 0.180849 0.024791064 0.1292891 0.06287992 0.16657591 0.008427325 0.17899078 0.0149327945 0.010857214 0.023771541
nodejs -0.15807895 0.023219518 -0.007868318 -0.095878474 -0.1073547 -0.15469526 0.15601781 0.1592474 -0.088609286 -0.15906747 -0.039411988 -0.108922035 -0.09557267 -0.078264646 -0.04593981 -0.082924135 -0.0056350306 -0.17438959 -0.045493245 -0.15788683 -0.096028164 -0.0071016788 0.096067905 0.07465977 -0.07139401 -0.028499607 0.023125213 -0.18048681 -0.08452432 0.047181766 0.07700419 0.01581006 -0.00859074 -0.105269484 -0.05288926 0.21554655 0.08692646 -0.0161197 -0.03834714 -0.18049274 0.07857293 -0.15478954 -0.086468555 -0.024973577 0.06717953 -0.04668381 -0.008207439 0.045496643 0.049630057 0.04441929 -0.013430036 -0.104814865 0.10356916 0.045940194 -0.059022147 0.09096823 0.08243854 -0.04545592 -0.12693585 0.02300632 0.06593578 0.029104408 0.13697702 -0.09976488 -0.08768841 0.048436467 0.062656336 0.18178548 -0.16383101 0.0706819 0.019372039 0.090579346 0.14609306 0.01425908 0.09009097 0.13046972 -0.060066193 0.004887991 -0.10776558 0.07715355 0.06447087 0.013812779 -0.0150272865 0.068239555 -0.08860121 -0.095440336 0.0031655224 0.23298047 0.070838526 -0.015252617 0.2319258 0.1588402 -0.0035480424 0.07553488 0.22718462 0.14246511 0.08881736 -0.11707405 0.025410546 -0.06540976
java 0.0040054307 -0.048853863 -0.01020906 -0.002995318 -0.026977597 -0.13750595 0.18259904 0.12816338 -0.068637945 -0.11882878 0.06582568 -0.07277415 -0.04208275 0.10549171 -0.07622914 -0.014589136 0.1453035 -0.053092595 -0.0047445633 -0.24506156 -0.005755169 -0.028075263 0.124987915 0.018760884 0.0011351446 0.03217689 -0.028611368 -0.14907958 -0.094335124 -0.03349202 0.10145039 0.19150239 0.027751196 0.0031820042 -0.120625444 0.15265755 -0.037919004 -0.15394771 -0.14581183 -0.2527767 0.063644394 -0.15166317 0.0663866 -0.08099979 0.11524802 0.08462874 -0.08922681 -0.12790146 0.013507225 0.033958618 -0.042764697 -0.12409763 -0.056207087 -0.0004506617 -0.060291503 -0.022148997 -0.034463003 -0.065576695 -0.14424053 0.004024403 -0.013404698 -0.012554125 0.12873508 -0.013113542 -0.15231709 0.09277481 -0.007505013 0.11473785 -0.17492406 0.11104106 -0.027016407 0.1036711 0.045040794 0.017094322 0.17255199 -0.022720685 0.06716255 0.039783373 -0.13927634 0.110499635 0.065324806 0.008735808 -0.14489812 0.18748714 -0.09840918 -0.08811616 0.15731533 0.09746674 0.01766177 -0.044679657 0.123846374 0.084168896 0.03342843 0.10235017 0.12951216 0.10589238 0.1932001 -0.10668829 -0.012445063 0.052541453
awesome -0.009112393 -0.03994135 0.09373045 0.0697958 -0.0701605 -0.14510335 0.1581528 0.086032964 -0.082026295 -0.16347271 -0.0065486063 -0.08838784 0.009880553 -0.02333057 -0.025737207 0.017817806 0.095321566 -0.12073596 -0.08133032 -0.23362896 -0.019379776 0.06235218 0.03978342 -0.07557321 -0.08823101 0.071784064 -0.04844369 -0.030425116 -0.15831323 0.07033156 -0.03774965 0.12695085 0.022722617 -0.09080447 -0.083627164 0.124751955 -0.016275344 -0.0727133 -0.15619421 -0.1261607 0.075143695 -0.11067286 -0.03357124 0.03382827 0.16036333 -0.081715405 -0.0674706 -0.049950484 0.14762342 0.07140686 -0.1222099 -0.040719837 0.1290655 -0.10613862 -0.025957331 0.166012 -0.09114292 0.059408996 -0.06317381 0.15460372 0.066552214 0.009740831 0.020039432 0.060358386 -0.09656545 0.08185017 -0.0373021 0.26244 -0.10705356 0.09721511 0.028383797 0.030036971 0.11577556 -0.052644875 0.057217866 0.08058937 0.09938349 -0.07296412 -0.08385694 -0.03310273 -0.06591388 0.07103123 -0.14991485 0.18203865 -0.06777534 -0.0431873 0.103654526 0.2506572 0.16912435 -0.056578025 0.17275679 0.039766744 -0.012492336 0.16879539 0.1222891 0.093875624 0.09207325 -0.083868794 0.036667775 -0.052109092
android -0.18912698 0.11290542 0.054287847 0.09841635 0.06424102 -0.09505451 0.2239304 0.060505886 -0.10959571 -0.033866704 0.04728277 -0.15354717 0.09109084 -0.035815317 0.10389925 0.0011900768 -0.039288882 -0.1321554 -0.10753325 -0.16330783 0.0025753428 0.11595996 0.1445276 -0.07722357 0.03685047 0.03609483 -0.03207159 -0.19889094 -0.0712821 -0.10947166 0.100685515 0.0070095714 0.09844015 0.096693814 -0.04834279 0.17143779 0.011111564 0.041448575 -0.021043276 -0.24541914 -0.03846368 -0.028503558 -0.018688627 -0.01881323 0.05501042 -0.038670518 0.010385564 0.038612615 -0.0022358452 0.0032632062 -0.033063617 -0.021365572 0.03278699 -0.09082514 0.08025881 0.03648376 0.02547851 0.032566562 0.014626451 -0.0055493745 -0.09563172 -0.020711945 0.16372655 -0.04453558 -0.21851005 0.017592749 -0.011196443 0.2228198 -0.20580728 0.17143641 -0.117050864 0.04419906 0.14126213 0.06149137 -0.011107724 -0.026754543 -0.06666329 -0.11928515 -0.21364485 0.012059619 -0.0146627575 -0.024105668 0.020433187 0.15328014 0.0015241139 -0.004208177 0.05700245 0.037091672 0.049723312 0.021950038 0.07190139 0.0826901 0.09693532 0.07262065 0.2508675 0.19228397 0.12778734 0.0550289 0.06802495 -0.07721889
machine-learning -0.15178137 -0.058139544 -0.06989753 0.064056106 -0.050293244 -0.228522 0.08939627 0.19656342 -0.05944473 -0.15655383 0.015487474 -0.1275596 -0.05511429 0.015708905 -0.04729684 0.07409034 0.09069879 -0.23394315 0.03468956 -0.22833796 -0.012460478 0.038043533 -0.021958232 -0.015513644 0.069508195 -0.028310966 -0.08779659 -0.018412491 -0.12726589 -0.05159548 0.112573154 0.14515868 0.08058123 0.055220284 -0.14307512 0.19837074 0.05596261 -0.023545936 -0.07849215 -0.12507978 0.031666957 -0.03366476 -0.058567293 -0.048095677 0.08111029 0.0069720214 -0.038125116 0.03729179 0.09955926 0.14194869 -0.013206294 0.041260995 0.02561099 0.046318475 0.06424014 0.0064309626 -0.038434163 0.0027140186 -0.031697486 0.098040216 -0.045055065 0.113494605 0.15315071 -0.046354983 -0.17972203 -0.01847945 0.022544304 0.092226595 -0.08413893 0.1280176 0.02168603 0.09527024 0.043180723 -0.12521112 0.12339005 -0.004504052 0.04499522 -0.066092886 -0.05507551 0.050015476 0.031485826 0.059092943 -0.088033624 0.24628511 -0.07185287 -0.07637472 -0.011815894 0.17921866 0.15674365 0.002089377 0.084716685 0.17306735 0.11575576 0.19003724 0.2456658 0.044187322 0.03274227 0.006535638 0.090535864 0.025493616
awesome-list -0.011971693 -0.01888112 0.08307284 -0.10312269 -0.101633154 -0.20671076 0.0737405 0.16797578 -0.065653615 -0.17761903 0.08193422 -0.12530808 0.053836823 -0.047718894 0.020125974 0.039763775 0.07176668 -0.14726935 0.0096390275 -0.22095995 -0.042054497 -0.025157524 0.093754284 -0.02348331 -0.0759274 0.051610414 -0.010968599 -0.12728578 -0.027483612 0.026421294 -0.017868666 0.10376192 0.121703945 0.046881754 0.008611923 0.17907043 0.057175864 -0.08137284 -0.145911 -0.14985353 -0.024802942 -0.09146583 -0.080679595 0.07304436 0.012010876 -0.0932152 -0.029245261 -0.039695326 -0.015299798 0.06566012 -0.08546146 -0.044787828 -0.036300294 -0.011940634 0.059077937 0.07292839 -0.05956175 0.0035891712 0.00072127953 0.12579913 -0.09868613 0.0019037225 0.078790724 -0.0069696284 -0.20619616 0.06776541 -0.03512279 0.09119948 -0.061163634 0.11913931 0.03242169 0.12341728 0.03868 0.05468782 0.1138433 0.15122783 0.077172324 -0.118463434 -0.14330472 0.10479655 0.05087541 0.15527484 -0.0013407639 0.23346634 -0.17756489 0.020616977 0.0030940122 0.18254118 0.1436038 0.005351463 0.22203274 0.09161088 0.05652053 0.16327773 0.08285314 0.09788391 0.1981699 -0.09035987 0.036282778 -0.08973881
css 0.02367604 0.08895773 0.014051279 0.04583234 -0.007340007 -0.20931137 0.09754536 0.1906771 -0.078001484 -0.13935405 0.052563332 -0.057482842 -0.053210326 -0.027989538 0.044083018 -0.070070095 0.01205698 -0.19057581 -0.06600727 -0.2262154 -0.06243653 -0.09029773 0.037486605 -0.084374 -0.11723946 -0.08341686 -0.079228714 -0.015131155 -0.05301933 -0.0051118536 -0.001796308 0.0040483284 0.03419627 -0.024315182 -0.05339335 0.1346447 0.04441698 -0.057918046 -0.16317083 -0.2113465 -0.09861215 -0.10147616 0.0003097699 0.07706086 0.04565357 -0.048272293 0.093650185 -0.015180304 0.031128123 0.14865695 -0.01136366 -0.087880634 0.11079132 0.020291885 -0.04750808 0.06746549 0.007871236 0.08759492 -0.07792916 0.056102276 0.009159677 0.047383577 0.06599185 -0.055812914 -0.17632759 0.10670353 0.13576844 0.25127 -0.18731764 0.17631693 -0.039955053 0.13598143 0.10926898 0.0123404395 0.11473888 0.12577248 -0.042058498 0.065155365 -0.13351905 -0.014120212 -0.02843448 0.18372858 -0.13723536 0.12652715 -0.003246436 -0.020657787 -0.020443123 0.07367877 0.17695779 0.027863745 0.19566871 0.039763197 -0.032130726 0.14353262 0.20946719 0.034880873 0.016030304 -0.072188094 -0.05236523 -0.029931663
typescript -0.106785335 -0.034632254 0.070163615 -0.08318131 0.007154774 -0.13082771 0.124526754 0.21585551 0.042966507 -0.15420392 -0.041142974 -0.15580298 -0.09396293 -0.015045495 -0.06422729 -0.07376114 0.06270891 -0.120336816 0.02292789 -0.18565159 -0.04956118 0.0077537377 0.028661061 0.069888 -0.009749967 0.059746686 -0.0666377 -0.043851268 -0.121150486 0.049933124 -0.023473315 0.118828274 0.0430821 -0.034631576 -0.10262518 0.08255111 -0.008632796 -0.13079993 -0.080026485 -0.16768394 -0.024350706 -0.04590991 -0.044749122 -0.017868388 0.018137509 -0.09674821 0.065863386 -0.0653951 0.018606434 0.10912847 0.0066480758 -0.08965921 0.04749324 -0.077344425 0.044665642 0.054097682 -0.028214378 0.04286867 -0.015885467 0.15431863 -0.08109102 0.0033667244 0.1235609 -0.014056738 -0.16549881 0.034561295 0.13567875 0.17801557 -0.18119498 0.18718101 0.044480514 0.085910335 0.11888943 -0.08651652 0.1064578 0.06514908 0.055212323 -0.08660651 -0.18787158 0.047562603 -0.06745328 0.12807839 -0.08592769 0.2513887 -0.13412711 -0.026350945 0.11802541 0.14139014 0.059710193 -0.034888048 0.19648392 0.0712103 0.12896958 0.065054804 0.18932395 0.11641434 0.1900856 0.0011479045 0.04930145 0.04747665
deep-learning -0.19152522 0.09272963 -0.07209952 -0.037136834 -0.0747131 -0.20254424 0.046172492 0.06484398 -0.07747092 -0.12337238 -0.046173602 -0.037502613 -0.13106789 -0.044466965 0.06592227 0.060901787 0.12250107 -0.096622206 -0.01897846 -0.21007884 0.033519898 0.021138337 0.100502506 0.063408196 0.06564426 0.08814275 -0.107738435 -0.1595273 -0.09079641 0.050922006 0.10194852 0.1512664 0.10921725 -0.075120054 0.0010597085 0.10403157 -0.050041407 0.024091627 -0.070646904 -0.18705003 -0.03352044 -0.12900235 0.016177757 0.040268097 0.056016702 -0.07782695 -0.043083828 -0.022326736 0.11575004 0.038927082 -0.03643274 -0.022018068 -0.029270962 -0.008400343 0.015335671 0.1033654 0.041198485 0.0069328323 -0.10359576 0.17584847 0.029184695 0.10303872 0.103541255 0.05067026 -0.05550989 0.013466848 0.14678086 0.21550736 -0.03885576 0.14655864 -0.024372645 -0.0037448385 -0.003253127 -0.0017859687 0.1872339 0.13805641 0.0020346616 0.028390242 -0.078289516 -0.0008823571 0.016688867 0.033269033 0.010669055 0.21887793 -0.04874163 0.016273463 0.13938566 0.22865035 0.0839241 -0.11515255 0.23834454 0.15868174 0.08673187 0.10114031 0.09416568 0.06592169 0.1908581 -0.079438336 -0.059924696 0.08250941
vue -0.036109526 0.06976019 0.011464565 -0.077107966 0.03876685 -0.20733775 0.18472262 0.18802668 0.038975794 -0.19291225 0.06816094 -0.18405986 -0.093146205 -0.059441864 -0.06373773 0.045590237 0.12665036 -0.1765679 0.0028550138 -0.20320882 0.041666098 0.04197817 0.02910649 -0.01781569 -0.06444785 0.043227114 0.0027190214 -0.13041008 -0.056612693 -0.044388644 -0.03327965 0.09342856 0.03970122 -0.08581362 -0.110337935 0.09287796 0.11488945 -0.016447343 -0.104555465 -0.12766065 0.04433852 -0.114087634 0.021836357 0.023987884 0.12475524 0.030920133 -0.037962396 -0.037972577 0.07756529 0.106440954 -0.021639155 0.0011320718 0.08025429 -0.10079275 0.010421232 0.035074234 0.06476266 0.06717821 -0.08103096 0.14306182 -0.0721812 -0.0009513376 0.09149588 0.018454766 -0.11239393 0.08294018 0.057924688 0.17623696 -0.11619856 0.16771936 -0.04305477 -0.018851832 0.14463751 -0.058003332 0.09790378 0.011896683 0.09407455 -0.021842698 -0.11904904 0.06651222 -0.062239207 0.10752089 -0.06297003 0.12453614 -0.05817912 -0.004824043 0.11982373 0.21909748 0.081457 -0.1060947 0.24365443 0.10622122 0.12225171 0.1760048 0.17873025 0.07280107 0.13184236 0.016820854 -0.045009527 0.062215336
framework -0.15962456 0.055614874 0.027272994 0.07582514 -0.07935968 -0.18621822 0.033819545 0.15526679 -0.077725604 0.008334468 -0.04889743 -0.18744823 -0.08390723 0.08389098 -0.091653556 -0.07259951 -0.041939203 -0.042912573 0.018197129 -0.096707106 -0.05257172 0.06742645 -0.054245118 -0.013465686 -0.08107053 -0.006115623 -0.028030995 0.013102778 -0.08483475 -0.1092131 -0.037326653 -1.6577043e-05 0.05611546 0.08316198 -0.11829745 0.21701045 0.13470988 -0.13796109 -0.17330283 -0.03089157 0.08705932 -0.13332944 -0.09967683 0.0843905 0.10744852 0.076801926 -0.09115148 -0.12599143 0.07154405 -0.062023036 -0.08900368 -0.06831885 0.14833115 0.077158935 -0.005157084 0.13726145 0.09474969 -0.008863243 0.050800417 0.1614869 0.017170519 -0.00899272 -0.00964114 -0.05924062 -0.008473475 -0.046968974 0.020208983 0.25269067 -0.046441324 0.2065592 -0.09389693 0.025948856 0.13292654 -0.092949376 0.17700036 0.16633809 0.010573363 -0.040331975 -0.10721757 -0.0341532 -0.10125074 0.049256355 -0.089666285 0.19230525 -0.151335 0.045821488 -0.033808574 0.043409333 0.17433523 0.06492722 0.09737737 0.11413853 -0.008025817 -0.0063156453 0.062876046 0.16779418 0.16999966 0.07363656 0.07984999 0.075953394
macos -0.06721021 -0.08807282 0.044544183 -0.019012036 0.03593273 -0.12437236 0.07986434 0.19464007 -0.01934078 -0.09538106 -0.0402175 -0.16700673 -0.10103602 0.0836326 -0.09445102 0.08071977 -0.03789219 -0.12376984 -0.03554662 -0.22267216 0.06730523 0.063349575 0.052823704 0.052876107 -0.011924059 0.099939905 0.061191674 -0.18272227 -0.13482495 -0.019702196 0.055368815 0.048141807 0.042330265 -0.1073752 -0.02647518 0.17765515 0.07836494 -0.08901222 -0.16063586 -0.23048352 -0.013660282 -0.15094358 -0.08159625 0.058152437 0.13930847 -0.0034028909 -0.081867605 -0.07490279 0.12704776 0.0940525 -0.08519693 -0.10180643 0.04165222 0.0062756636 0.045827642 0.10018485 -0.058135793 -0.066688396 -0.1316685 0.087419175 0.033609554 0.078581125 0.07266299 0.027154665 -0.11409605 0.065843806 -0.033321902 0.2298514 -0.032114368 0.19846928 0.06323845 0.117997415 0.078873366 -0.054600816 0.096302636 -0.03119363 0.102459416 -0.08400012 -0.025561107 0.0018289469 0.0033001772 -0.016047562 -0.15739213 0.0778017 -0.15265672 -0.013880552 -0.019347679 0.09831392 0.032685123 -0.07506831 0.21477431 0.119934395 0.14379178 0.17073312 0.08378657 0.16481681 0.018536227 -0.06336616 -0.07313046 0.03110832
golang -0.055553142 0.071183644 0.03336104 -0.08573856 0.057937887 -0.19735134 0.19685148 0.14770629 -0.07483118 -0.14030841 -0.04681399 -0.14260827 0.06684057 -0.022979982 0.06433389 -0.10732554 0.06591087 -0.12528838 0.05921305 -0.23021263 0.061261788 -0.059207242 -0.041801244 -0.050258238 -0.04612596 -0.030676665 -0.038804 -0.16645747 -0.07620684 -0.017803775 0.0057505043 0.124751456 -0.047515605 -0.06364774 0.0034478582 0.21000072 -0.06847064 0.018353028 -0.022517577 -0.1786075 0.081490904 -0.17521413 0.052208446 0.056243114 0.08400713 -0.073918134 -0.0451426 -0.057276227 0.06627264 0.07176078 0.04509921 0.07855747 0.12680426 -0.06902289 0.12581986 0.05830773 0.041923676 0.042869154 -0.06752328 0.121818 -0.06340095 -0.028386235 -0.031317674 -0.006343945 -0.03577487 0.03253848 0.065788634 0.18236433 0.00047909498 0.05986903 0.016860165 -0.046890326 0.10263751 0.06568205 0.17386971 0.11828394 0.10225731 0.050956305 -0.026587402 0.12791821 -0.053412076 0.16336994 -0.011751888 0.11830145 0.014865377 0.036339786 0.1494707 0.16746853 0.18202497 -0.02387073 0.23078991 0.1067463 0.13315043 0.06303117 0.19639504 0.16514863 0.07734552 -0.055437054 0.041077234 -0.08328891
html -0.0014146985 -0.08391457 -0.058493417 0.010477998 0.03216917 -0.19509128 0.1456467 0.21020354 -0.09211238 -0.15207846 -0.043748584 -0.124581024 -0.012044095 0.08879093 0.03718031 -0.006522539 0.07167494 -0.05328733 0.057669394 -0.09488278 0.03750414 -0.06955574 -0.007725242 -0.04066949 0.044445604 -0.01476115 -0.08112582 -0.025146235 -0.021645045 -0.041239217 0.10752572 0.085689984 0.0015933091 -0.03277074 -0.052210175 0.10257094 0.06315164 -0.014335133 -0.024168273 -0.23281856 -0.03269108 -0.13639821 0.047625892 0.05189601 0.03577252 -0.003719033 -0.055318195 -0.015756175 0.13774084 0.03471849 -0.08270512 -0.100158885 0.011532371 -0.03920077 0.06085231 0.15543534 -0.03264065 0.042981118 0.01621751 0.10648092 -0.0027480507 0.12663633 0.13937673 0.042253587 -0.17208937 0.11577034 0.11236033 0.25042632 -0.12101427 0.19079182 0.05709635 8.520431e-05 0.13704586 -0.017100854 0.17582756 0.03223493 -0.0049332264 0.03158902 -0.19042304 -0.024801569 -0.060974628 0.07213432 -0.09371559 0.21764782 -0.0029076398 -0.028996397 0.06361613 0.17275208 0.06995822 -0.10774963 0.21838094 0.04030747 0.11037458 0.18566297 0.17111282 0.12716673 0.14811894 -0.063383184 0.038666412 -0.003799662
ios -0.041166227 0.057321373 0.026845787 0.046174835 -0.117573015 -0.10612624 0.22413658 0.10628468 -0.019919353 -0.1724935 0.009654537 -0.07881476 0.041220587 0.011969416 0.0057906774 0.0008386298 0.13630955 -0.20486684 -0.08835501 -0.20641978 -0.041542068 0.045354497 -0.052422624 -0.018961364 -0.092391595 0.06230779 -0.03530532 -0.197879 -0.069961205 0.08059079 -0.0016195598 0.047125537 0.07029751 -0.033803377 -0.16351177 0.23519911 -0.029968131 -0.118224315 -0.12228724 -0.2261899 0.0033409817 -0.0064952276 0.01847547 0.08139092 0.07953019 -0.018892799 -0.029720385 -0.11006068 0.100851454 0.0941005 -0.13798533 -0.08662793 -0.05372165 -0.0910079 0.07646998 0.17243822 0.038045812 0.053722523 0.00041313047 0.09530317 -0.029302299 -0.04371364 0.06487569 -0.05615021 -0.1311816 0.10692766 -0.0036244558 0.15090047 -0.17558704 0.14417447 -0.038365517 0.0658847 0.12690413 -0.096232906 0.061756033 0.07696006 0.078685574 0.020822546 -0.15233128 0.0027751373 -0.06110859 0.080415465 -0.061105646 0.19659379 -0.019336484 -0.052001584 0.05983615 0.11659278 0.08874519 -0.12459536 0.16760507 0.10687096 -0.0040087965 0.21040618 0.07128056 0.016492061 0.042113617 0.027369758 0.04946303 0.08410337
windows -0.046086002 0.017823 -0.031935226 0.10162401 0.014449099 -0.095887534 0.100326605 0.13672842 0.05514291 -0.11021218 0.04503804 -0.10251488 0.04164049 0.05131557 0.01970172 -0.077522345 -0.009438409 -0.07540218 -0.09331435 -0.14888632 -0.021896329 0.039196268 -0.08294428 0.123825595 -0.030616883 -0.062180493 0.04312085 -0.115361184 -0.19474265 -0.066868305 0.019752454 -0.022286685 0.02938614 -0.004348682 -0.09621689 0.16968802 0.06956509 0.06174453 -0.0663073 -0.12837231 0.020490067 -0.10763835 -0.13372125 0.098874964 0.041904803 -0.14559746 -0.09366932 -0.06910538 0.108048774 0.12656242 0.03780616 -0.119361356 0.04435099 -0.06527209 -0.035357025 0.1597498 0.050282434 -0.012169587 -0.17211531 0.025842464 -0.020783423 0.13645352 0.1378789 -0.12696354 -0.24292529 0.113376275 0.03265863 0.11875779 -0.025280062 0.08417216 0.06376908 0.03517661 -0.0101427315 -0.044656612 0.17411572 0.17538144 0.048194543 0.0401945 -0.179587 0.031369958 -0.07275157 0.091194436 -0.09446897 0.11244878 -0.17445235 0.10549439 0.088730305 0.124618635 0.037725236 0.0551555 0.07277092 0.12409854 0.077430986 0.21611233 0.23174022 0.06651834 0.1403253 -0.0640886 -0.123097405 -0.042237345
terminal -0.07745611 0.08703913 0.12357957 0.097257614 -0.12191839 -0.09876392 0.06474423 0.14094283 -0.028211843 -0.04144243 0.051270023 -0.049778476 0.08008314 0.011948462 -0.094078 -0.08432076 0.14094019 -0.21052761 -0.06046676 -0.118562326 -0.038690884 -0.0753671 -0.002530536 0.02347893 0.013308625 0.08510132 -0.075388394 -0.069756344 -0.023816794 0.018989531 0.1014441 0.04694923 0.10238828 -0.13564771 -0.02337866 0.04554101 0.009719663 -0.1843265 -0.12121627 -0.2442441 -0.058471512 -0.08656533 0.010586718 -0.021748653 -0.015353187 -0.09613428 0.002046205 -0.076839544 -0.05121288 0.0649028 0.040703136 0.031606928 -0.079104714 0.0014421383 -0.041845117 -0.028115386 -0.003074878 0.026251663 -0.16533494 0.029707473 -0.042433117 0.12259712 -0.021686707 0.06591656 -0.14238754 0.044723973 0.18995562 0.24682358 -0.15418735 0.23214589 0.037960075 0.11639657 0.087336056 -0.103098616 0.12862213 0.0014648524 0.044238873 0.03339804 -0.0679603 0.16066523 -0.09931761 0.027840283 -0.002238288 0.19451384 -0.17895567 -0.010599097 0.09344152 0.14201814 0.03899885 0.014490354 0.29595497 0.0021931943 0.07667985 0.09443577 0.08710278 0.10027748 0.06229211 0.061266273 -0.075125575 0.03731444
linux -0.093064815 0.047057636 0.027561223 0.08560839 -0.017081587 -0.22072184 0.120386735 0.16170187 -0.070218496 -0.19100265 -0.05568861 -0.17218459 0.035451192 0.03952288 0.066236265 0.055647757 -0.0033788956 -0.118627906 0.059864923 -0.14492247 0.015885903 0.057690363 -0.061595745 0.10369833 0.05470317 0.0968251 -0.09790636 -0.040765032 -0.039462127 -0.02443082 -0.035337873 0.16074592 -0.03993346 -0.09017821 -0.024615657 0.23218338 0.12572582 -0.11618707 -0.18474904 -0.076258704 0.05121478 -0.13692582 -0.10636743 -0.047434513 0.041181955 -0.053271662 -0.0010305116 -0.031910986 0.031086937 0.012146981 0.05145052 -0.08493832 -0.03695128 0.042430256 0.057947006 0.16880171 -0.04682633 -0.03979841 -0.06955245 0.09237699 -0.109395586 0.023084454 0.09783324 0.039463863 -0.06791458 0.061307237 0.021047141 0.16361591 -0.14727001 0.2376368 -0.06817745 0.062155105 0.07133016 -0.10252124 0.03253219 0.12062689 -0.059581444 -0.03693533 -0.09985406 0.12989901 -0.07562548 0.116513975 0.016617475 0.10690156 -0.13248569 0.03225406 0.10840276 0.187881 0.17910387 -0.036907256 0.19440824 0.0714945 -0.0061426973 0.15681036 0.18110281 0.021437898 0.11337758 -0.04192517 -0.006428642 0.07591245
cli -0.11438471 -0.048776142 0.07091624 -0.08184344 -0.10426512 -0.18688855 0.06153357 0.15191597 -0.019792844 -0.14070088 -0.05778596 -0.11214386 -0.044301588 0.03360212 0.05529614 0.047281194 0.13097586 -0.22533642 0.06248529 -0.19060908 0.06140377 0.019711694 0.05542319 -0.07474389 -0.09530603 0.09674162 -0.029417746 -0.08287494 -0.052455153 -0.014479676 0.11121327 0.09784391 -0.053880233 -0.09880941 -0.07273333 0.07843597 0.10857763 -0.043709427 -0.17776789 -0.10233881 0.066242434 -0.050049137 0.037749 -0.08656118 0.091087334 -0.110176384 -0.038608816 -0.027583562 0.059527934 0.08000358 -0.015360189 -0.018037109 0.08981061 0.03367978 -0.01503187 0.15206078 0.045366794 0.11663312 -0.03714205 0.07280171 -0.046040036 0.033303797 0.051792506 0.059166357 -0.12388013 0.07033415 0.096297584 0.11056304 -0.04860066 0.25711924 -0.021965358 0.064834334 0.029873576 -0.1044699 0.18107365 0.03801257 0.08710952 -0.017949749 -0.1462968 0.08018409 -0.042122725 0.068495564 -0.07034732 0.22334765 -0.109128304 -0.018147096 -0.01298586 0.25962836 0.017555248 0.014599232 0.21430065 0.027315343 0.037078723 0.055708587 0.123080604 0.18103926 0.216292 -0.022687329 0.0047110673 0.0751587
web -0.12728556 -0.0071693794 0.03402824 -0.07532022 -0.11621726 -0.23095238 0.19763821 0.1710579 -0.0749606 -0.17551786 0.01259273 -0.057821177 -0.042000044 0.02129712 -0.06198398 0.036427524 0.05930113 -0.03320565 -0.11825581 -0.19075027 -0.10300954 -0.0077889524 -0.053029336 0.05912423 -0.069073185 -0.0548321 0.042323265 -0.17050382 -0.07811357 -0.08337075 0.11963349 0.17251907 0.049010318 0.027510522 -0.007349396 0.06970086 0.12813824 -0.15160337 0.0038890482 -0.11936208 -0.04274681 -0.116199985 0.06742966 -0.054394513 0.14948267 -0.07829946 0.076968476 -0.026514504 0.13290091 0.032170665 0.018335529 0.05441885 0.060578533 -0.01927621 0.07716458 0.14937262 0.076167665 0.1010252 -0.00012418265 0.16549635 0.07323002 0.035388216 0.042477634 -0.011676098 -0.11107612 0.029817898 -0.027231863 0.06605012 -0.112459265 0.23345111 -0.037104957 -0.036600668 0.11889609 -0.021862911 0.11111358 0.09361752 0.0535959 0.03032266 -0.09207729 0.047905616 0.087087415 0.099835485 -0.113268316 0.21335773 -0.027521173 0.006663532 0.022065412 0.17750101 0.14749934 0.02963971 0.15507902 -0.004888141 0.07043034 0.106954575 0.16935474 0.006668682 0.19452636 -0.10529371 0.054935638 -0.099034145
list 0.024522057 0.080915764 0.021866849 -0.050272692 -0.031237531 -0.15450689 0.056454834 0.19897085 -0.007536959 -0.068854935 -0.07842884 -0.0016597398 -0.026687684 0.0031135175 -0.12558135 0.036363427 0.12781122 -0.049388785 -0.093508154 -0.24439614 -0.077879466 -0.007893651 -0.07066839 -0.083281115 -0.034053262 0.016061587 -0.113048755 -0.14039819 -0.0968404 0.064326465 0.044093687 0.09208556 -0.05023702 -0.10861331 -0.063446656 0.22962207 0.104076326 -0.0845417 -0.07730374 -0.27543503 -0.025787674 -0.147755 0.04166433 -0.026888054 0.03221142 -0.13207622 -0.015072086 -0.10171075 0.04417892 0.021583576 -0.072455704 -0.06872968 -0.051972028 -0.047942925 0.047456115 0.03402502 -0.09196912 -0.013880107 -0.17425865 0.08872757 0.05316832 0.005331272 0.098527275 0.027971806 -0.03375352 0.092343144 0.16769533 0.075616226 -0.19328225 0.09436656 -0.08787592 -0.051643755 -0.004419722 -0.07269674 0.12234075 0.03234575 -0.07405632 0.028182104 -0.11184287 0.09699401 0.07601261 0.17142884 -0.08597932 0.20969303 -0.14817087 -0.0015029388 0.11042025 0.2749057 0.059390232 -0.008487985 0.10066032 0.057979196 0.16480084 0.07620122 0.13769746 0.005822504 0.009048859 0.057466865 -0.0633259 0.044621814
docker -0.16030611 -0.02525283 -0.08662486 0.069971465 0.044109378 -0.086874716 0.20884043 0.11708991 -0.1338405 -0.0041593327 -0.048765875 2.9669314e-05 0.024110405 -0.00532336 -0.10248531 -0.024524692 0.11827234 -0.1978069 -0.00749947 -0.23036474 0.07740084 -0.032053698 0.12863852 -0.050110232 -0.11608928 -0.08615308 -0.05178477 -0.04025624 -0.093736164 0.09297017 0.05555153 0.13170017 0.06151992 0.0585373 -0.07690014 0.210174 -0.06823501 -0.02715512 -0.08676437 -0.14455995 0.06537782 -0.11970598 -0.046609074 -0.0008117063 0.069024764 -0.060833536 0.062706724 -0.088304445 0.14098196 0.0571256 -0.009491019 0.0031261018 0.031840477 -0.012489605 -0.010391458 0.12621686 -0.000697618 -0.00734219 -0.15950768 -0.015887318 -0.0070943506 -0.027555956 0.044523425 -0.07237985 -0.207866 0.03764552 0.12027183 0.1390489 -0.17271867 0.18542202 -0.008188367 -0.02833066 0.06303588 -0.04439037 0.056859963 -0.053875785 0.09858128 0.016180638 -0.1359332 0.11458326 0.002932759 0.14885595 -0.08230062 0.23327926 -0.07944143 -0.08127416 -6.3149426e-05 0.25268632 0.090568155 -0.03117352 0.24600556 0.008100366 0.048304487 0.014708284 0.061533377 0.0017591685 0.14987577 -0.010465916 0.06622168 0.019267252
electron -0.06629615 0.06595815 -0.016679127 0.021512315 0.06323853 -0.15202035 0.18939428 0.06525242 0.037474614 -0.06132957 0.05615877 -0.20165634 -0.032998405 0.035995185 -0.07900225 -0.07918053 0.1187271 -0.2092928 -0.077315256 -0.07089735 -0.09168745 0.08210967 0.03250545 0.05569683 -0.03700715 -0.04686708 -0.104327634 -0.10281504 -0.15769483 -0.04282524 0.11013758 0.019456724 -0.0357055 -0.088064216 -0.12630893 0.05547495 0.025300425 0.028622255 -0.0049976073 -0.21775262 -0.09778765 -0.11577725 -0.11956896 -0.05731956 0.014314843 0.009570944 -0.08553845 -0.007708867 0.08584587 0.12601535 -0.06240521 -0.13973558 0.08633413 -0.09084058 0.08035822 0.09946013 0.088796206 0.045032892 -0.093976334 0.16516487 -0.08941303 -0.04972027 0.10395371 -0.0529315 -0.17215352 0.0061860117 -0.036271214 0.17673552 -0.114420705 0.1362334 0.02380028 0.0888283 0.1505043 -0.12225938 0.04486368 -0.02943817 -0.069431946 -0.07257882 -0.13491212 -0.038942363 -0.058837526 0.059078816 -0.008955082 0.18132089 -0.0023793892 -0.10537465 0.008221834 0.15299551 0.18453409 -0.034104448 0.17657384 0.103666626 0.10396189 0.019747525 0.18572521 0.15870567 0.16636199 0.0027667065 -0.08773819 -0.049288314
database -0.0027538785 -0.004636121 -0.0942262 0.037066318 -0.08591061 -0.08522629 0.17763971 0.077111416 -0.0078403 -0.05304461 -0.03322433 -0.10803799 0.05802988 0.094477996 -0.11630517 0.07148538 0.15094753 -0.15650365 0.006650936 -0.18303257 0.07439591 -0.0047304095 0.08040981 0.104642875 0.032563757 -0.06301675 -0.02879825 -0.08522223 -0.08127422 0.015662897 0.11971283 0.1463289 0.12713543 -0.120532595 -0.114035554 0.16140138 0.07007567 -0.07425363 -0.15779018 -0.19616728 -0.09718962 -6.428992e-05 0.014443693 -0.0793981 0.11613368 0.023791939 -0.061641365 -0.08667498 0.06788256 0.15763815 -0.14195651 -0.028173126 -0.031894434 -0.039701827 0.062272098 0.022397928 -0.034071244 0.03364229 -0.13524148 0.16727185 0.035028033 -0.05200905 0.036649104 0.004503311 -0.21106218 -0.043891635 -0.028169066 0.1163215 -0.006445394 0.23781946 0.027983574 -0.051496338 0.13719456 0.007993849 0.10092696 -0.031075964 -0.001359584 -0.024085185 -0.19521116 0.068327986 0.0025077814 0.0025594942 -0.1541365 0.22277336 -0.17336717 -0.07405686 0.10967672 0.14852002 0.0576315 -0.09575221 0.14572796 0.1284884 0.013564089 0.062492516 0.093950815 0.05523755 0.028013686 -0.1438461 0.07579991 0.06846541
shell -0.12721905 -0.10007379 -0.01962559 -0.05553643 0.079707876 -0.11478198 0.047539815 0.083764695 -0.14160027 -0.0795382 -0.043507252 -0.11799808 0.026549526 0.08480657 0.036244694 -0.08126685 0.12083941 -0.23502657 -0.101162195 -0.22888234 -0.03860355 0.0046221823 -0.020374909 0.03333643 0.09437915 0.08022511 -0.0181645 0.009368216 -0.077319875 -0.032944888 -0.048901398 0.16467139 -0.07505942 -0.053874377 0.036634535 0.102102965 0.05338583 -0.14481366 -0.024459496 -0.06342962 -0.11545539 -0.11930815 0.07014862 0.03436385 0.07183136 -0.015005398 -0.11628303 0.090098985 0.033491507 0.0056207217 -0.008216914 -0.017731568 -0.029947167 0.034886286 0.0029567892 0.004155396 0.07772079 0.09833401 0.0316395 0.10265245 -0.003047689 -0.049512416 0.10799984 0.08138689 -0.12528573 0.0010981481 0.014052367 0.1584101 -0.1760649 0.21915883 0.01603585 0.13635115 0.0027868436 -0.093264244 0.023903804 -0.024475118 0.053841647 0.029546924 -0.09564832 0.07971003 -0.10640481 0.05959011 -0.15540934 0.1836834 -0.11291997 0.08481664 0.0082865795 0.2275834 0.13081916 -0.024873028 0.15334612 0.17077728 0.092792064 0.20230165 0.17211029 0.16143233 0.16228606 -0.12373344 -0.06862693 0.00022306589
api -0.07005262 0.027185524 0.017303243 0.07283306 -0.07292302 -0.13232397 0.18433538 0.13850671 0.023058962 -0.045700204 -0.012510194 -0.17467442 0.006641707 -0.094627574 -0.044620264 -0.1157204 0.035207953 -0.19963457 0.06754058 -0.18945384 0.101365045 -0.110743314 -0.030724516 0.030088205 -0.044816963 0.021590773 -0.04931405 -0.092178404 -0.14721262 -0.123369135 0.09534304 0.09048807 0.09938831 -0.113354035 -0.003043402 0.0037983821 0.119374864 0.014947456 -0.14501071 -0.04168947 -0.076716 -0.17487665 -0.004801432 0.03531846 -0.024209319 -0.12096838 0.103748694 -0.00081826944 0.05997865 0.08770702 -0.07306145 -0.0027517804 0.057398118 0.08532075 -0.038281694 0.09292513 0.06719542 -0.057185046 -0.16237669 0.18040971 0.06555277 -0.015916282 0.11529173 -0.015649047 -0.16335523 0.00688917 -0.0060846964 0.21603651 -0.06213426 0.042871024 -0.0041118297 0.0007486001 0.1403475 -0.0424449 0.17394912 0.073059864 -0.022290764 0.06825233 -0.06546499 -0.0060229506 -0.065431036 0.03183944 -0.12306837 0.17295606 -0.17690624 -0.08553228 0.08460167 0.13664044 0.14742498 -0.080853656 0.13415852 0.093104966 0.12633906 0.1142634 0.2390006 0.13063784 0.017550306 -0.051806923 -0.09577138 -0.07028145
swift -0.11026497 -0.12271201 0.12455426 0.014697456 -0.035770185 -0.21739818 -0.00077484426 -0.005743864 0.08815171 -0.12863451 0.057564735 -0.14608136 0.0918347 0.054407794 0.00087515096 -0.05814391 0.05952745 -0.1537361 0.07425449 -0.087436765 -0.001883828 0.04302785 0.07077761 -0.08123295 0.10322857 0.032675087 -0.08235861 0.01806807 -0.107922524 0.0946693 0.00839875 0.17881581 0.07071324 -0.08109904 -0.099827975 0.24814802 0.057758126 -0.13497576 -0.07379835 -0.1745994 0.0046101864 -0.18248534 0.074500866 0.018690765 0.17356835 0.040771954 -0.061247423 0.030210702 0.05059364 -0.06225277 0.071670875 0.09727364 0.16051929 -0.077476636 -0.079473324 0.13777046 -0.09711247 0.13110748 -0.032264683 0.15687314 0.06291191 0.041013956 0.026308851 -0.01633013 0.012448966 -0.063181415 0.029804919 0.13051285 -0.029874131 0.23309062 -0.058451205 0.07839564 0.01873323 0.0059590447 0.19432418 0.100380406 -0.03779233 -0.06365522 -0.0073611806 0.16237149 0.0693023 0.035038635 -0.08919684 0.07163496 -0.12921642 0.020311773 -0.03270496 0.061006267 0.18607898 0.08258154 0.25168103 0.097336024 -0.047334246 0.008569131 0.15199623 -0.024446677 0.0063741864 -0.01095201 -0.0416104 -0.12660097
react-native 0.0049923803 -0.09859196 -0.08339722 -0.03213174 0.002216547 -0.13675642 0.039355174 0.18570517 0.07601611 -0.17101419 0.1122786 0.0028301803 -0.11103981 -0.015120415 0.034783997 0.06618282 -0.0032910837 -0.18410927 0.036159497 -0.2289156 -0.0787591 -0.018524952 0.081852406 -0.056532748 0.05021742 -0.0013886197 0.029418042 -0.0084439255 -0.063830376 0.075587206 0.016921239 -0.01656738 0.13180624 -0.079478726 0.007700992 0.0653688 -0.05019302 -0.12866645 -0.017953845 -0.13534497 0.006489263 -0.17508256 -0.07696237 -0.072803125 0.1545517 -0.12116557 0.058161266 -0.025045974 0.05541109 0.15301193 -0.073604986 -0.108811185 0.038016688 0.063383915 0.12861896 0.02029124 0.03040044 0.075848356 -0.11722188 0.15473396 -0.081278525 0.058116004 0.100200884 0.028092057 -0.15504023 0.055198483 0.12985067 0.24231815 -0.19563888 0.19737327 0.05759538 0.013322075 0.17411077 -0.08194371 0.062592395 -0.028857544 -0.022614868 -0.015813913 -0.13423008 -0.025092792 0.07059723 0.0015826329 -0.13373975 0.21982469 0.04039037 0.028953431 0.04561819 0.13467523 0.060425103 0.044660397 0.058514703 0.07328712 0.108945 0.06723801 0.13179387 0.13087729 0.20406029 -0.0063033057 0.10782028 -0.0721612
kubernetes -0.047827914 -0.03505063 -0.04366435 -0.00017361829 -0.07458392 -0.2378728 0.1754985 0.24071074 -0.110382386 -0.22170663 -0.035137158 -0.020439425 -0.14595038 0.11172935 -0.028869446 0.017977208 0.03742009 -0.20534308 0.009400959 -0.101898305 -0.097342364 -0.0176878 0.041241232 0.056075517 0.067197606 -0.028146964 0.06809424 -0.1694643 -0.1395004 0.08558622 0.08841217 0.020102343 0.016946452 -0.13380483 -0.08104645 0.21920739 -0.040584434 -0.0105702 -0.035064198 -0.21697366 -0.11733981 -0.13349536 -0.05569529 0.038418904 0.18776597 -0.005059012 -0.028026646 0.004659517 -0.0055700457 0.06020545 -0.060847167 0.06644022 -0.022532046 -0.111663915 0.0563722 0.11276648 -0.087577686 -0.036681056 -0.09177065 0.06986552 -0.10995487 -0.0028847517 0.034225333 0.039735433 -0.13037589 0.05093015 0.06925863 0.15585446 -0.07796121 0.19125839 0.057627875 0.035161093 -0.0068734754 -0.04019036 0.222158 0.011109337 -0.030551123 -0.060775418 -0.034766406 0.043451898 0.09640657 -0.0036933422 0.018530024 0.07792642 0.00377433 -0.00013158601 0.0876012 0.1165426 0.18965642 0.02017997 0.12031777 -0.014209544 0.15987112 0.066263475 0.058820322 0.1450719 0.070766196 -0.12268086 0.11139305 -0.027280122
ui -0.09146793 -0.040837377 -0.04861835 -0.06111892 -0.08251492 -0.18816409 0.018353764 0.2170391 0.045811474 -0.12716271 0.027919484 -0.1674165 0.053300265 0.09655545 -0.008122796 -0.08469483 0.012609371 -0.06492596 -0.047986496 -0.094225876 0.08855736 0.046243664 -0.034421522 0.06553656 -0.035363913 -0.06229933 0.06903407 -0.18132387 -0.10079153 -0.02442855 -0.070685335 0.07090265 0.08768055 -0.087444775 -0.12412263 0.18789326 -0.006508002 -0.14018236 -0.07240695 -0.13752171 0.070149735 -0.07078344 0.063383184 -0.106036514 0.109977506 0.0480857 0.008846883 -0.04737269 0.063362494 0.04750016 -0.12132151 -0.10230228 0.047141943 -0.049558025 0.12872435 0.055232428 0.06455831 0.045979306 0.025989408 -0.017376285 0.016580068 0.017939 0.074159935 -0.023414228 -0.18036018 0.12322348 0.019196907 0.17306292 -0.15837373 0.1826832 0.10706395 0.02023005 0.14161813 -0.035399 0.1717957 0.1549784 0.012945109 -0.040863108 -0.20182785 0.14208315 -0.035101853 0.09419407 -0.07749543 0.2315583 0.01464257 -0.003654489 0.0782492 0.20624113 0.09989124 0.03531014 0.14583601 0.04334211 0.12114621 0.059003364 0.09990794 0.18795985 -0.0006789714 -0.07050814 -0.03474244 0.055576622
interview-questions -0.0028320192 -0.062788524 0.059667353 -0.020777615 -0.11884956 -0.18768318 0.10984461 0.09044321 -0.04158483 -0.15939552 0.06291125 -0.004471522 -0.05157942 0.04195916 -0.029744104 -0.018409066 -0.019844415 -0.12377173 0.014532191 -0.08318588 0.04549745 0.029854784 0.08031517 -0.06582057 -0.02827219 -0.05326774 0.060343884 -0.02441396 -0.14744681 -0.0023793266 0.081735745 0.11954417 0.050858755 -0.09975482 0.03984091 0.07144065 -0.021025775 -0.12215024 -0.15949446 -0.19874614 -0.11718211 -0.07400047 -0.06468941 -0.029095618 0.14250736 0.01589958 0.020827336 -0.03650685 0.16422363 0.0754428 0.012610572 0.057198286 -0.06040362 -0.12803417 0.13506393 0.10804946 -0.025044436 0.07334864 -0.12171274 0.03673406 -0.097968355 0.10908685 0.03440147 -0.10435818 -0.18191007 0.089711204 0.034497745 0.116774045 -0.1162335 0.15364845 -0.035683103 0.010872738 0.12538731 -0.019348366 0.06968906 0.09043021 0.07306411 -0.120188 -0.19327043 0.113022074 -0.09508066 0.08639852 -0.17140393 0.2513696 -0.1270741 -0.09400596 0.045533814 0.15566394 0.17627683 0.048756734 0.15893108 0.11600496 0.12770168 0.119580224 0.09368971 0.098985985 0.14107369 0.04319492 -0.039978135 -0.109728
interview -0.03347838 0.09974085 -0.069058485 -0.030626945 -0.07607841 -0.0963561 0.22306843 0.13335052 0.020516278 -0.04533346 0.051221706 -0.18165457 -0.0050948835 -0.004236182 -0.042058494 0.047106408 0.035779443 -0.039593354 -0.029252462 -0.15495493 -0.042571373 -0.094721995 -0.06509413 0.059417788 -0.07702203 0.03531404 0.023085808 -0.17978781 -0.13675357 -0.07667895 -0.057939205 0.11029191 0.14115939 -0.09598963 -0.10189071 0.23312938 0.13435145 0.025172658 -0.19422014 -0.11688581 -0.08835383 -0.019328158 0.03549095 -0.03463456 0.15940896 -0.09677327 0.04878452 0.022622425 0.12493825 0.13221481 -0.0674855 0.008349741 -0.022879016 -0.10329464 0.06348744 -0.012919533 -0.011348771 0.037342623 0.000931864 0.032048333 -0.036016546 0.00065774005 0.0074522775 -0.03625096 -0.07881989 -0.022683682 0.0439104 0.269754 -0.116593026 0.13752174 0.06955502 0.04459478 0.07569058 0.065516695 0.18679169 0.095873214 0.054011293 -0.050123747 -0.033962697 0.10425291 -0.05671534 0.02451266 -0.08443021 0.08923472 -0.05102688 -0.11944707 0.048497878 0.20476475 0.13311705 -0.012406205 0.07457034 0.123695925 0.1355119 0.15740551 0.23186655 0.12779635 0.18542767 0.046957787 -0.012514034 -0.020449247
c -0.039328694 -0.09050634 0.065692335 -0.06989419 -0.05835538 -0.1400976 0.19059156 0.12777604 -0.0377973 -0.11382544 -0.023951106 -0.08490751 -0.087244846 -0.041378837 -0.011167089 0.04944074 0.059506163 -0.01854434 -0.008937605 -0.15491246 -0.09842954 0.065139 0.10370276 -0.06602427 0.043997347 0.11822157 -0.079859756 -0.10824376 -0.18475123 0.027450617 -0.017761448 0.098471865 0.14036553 -0.12757537 -0.15105934 0.1285797 -0.06799653 -0.15509771 -0.17806613 -0.12712525 -0.025450429 -0.0605569 -0.030609058 0.108123854 0.16839336 -0.09189932 0.10156623 -0.12375628 0.028315714 0.080249876 -0.030959407 -0.06557188 0.036492646 -0.016033785 -0.089207076 0.0011899774 -0.095911086 0.06699519 -0.065752245 -0.0175592 0.059106253 0.032163966 0.07674221 0.043944407 -0.14361621 0.11681965 -0.046459388 0.0937791 -0.16425355 0.13658567 -0.090676896 0.13325271 0.124815956 -0.11339489 0.15155114 0.119384594 -0.06863417 0.036790915 -0.17595333 0.14372718 0.05452269 0.05685882 -0.16521452 0.11432957 -0.06533594 -0.011161726 0.14706598 0.0864379 -0.034930747 -0.13444903 0.107927166 0.077686146 0.06080257 0.061348546 0.21135871 0.08112477 0.16393526 0.017331347 -0.08513222 -0.032770433
computer-science -0.19177234 -0.10463184 -0.046254598 0.08316974 -0.033661317 -0.0130600305 0.07091428 0.036397923 0.026599837 -0.056295965 -0.0027947589 -0.122172445 -0.12660538 0.07158307 -0.13282308 -0.14199336 -0.09415579 0.007793608 0.042708304 -0.025526153 0.13897812 -0.10965391 0.09125177 0.049604174 0.082305156 -0.046763863 0.13155729 -0.17481327 0.02085111 0.09111988 0.022585584 0.16524322 0.1365639 -0.0012168477 0.06358138 0.16229938 0.012868224 0.05300043 -0.0066532968 -0.19379443 0.0076646497 -0.083725296 0.055533882 -0.080105186 0.005594757 -0.029433545 0.052696608 -0.11616719 0.17461082 0.013015192 0.050524853 0.016083496 0.14198712 -0.09696981 -0.018168597 0.11573215 -0.04046546 0.11340445 -0.15198907 0.12693971 -0.027679758 0.024941437 0.08693339 -0.059158247 -0.16918513 -0.101729244 0.09306358 0.23721719 -0.17919782 0.28396836 0.051961105 -0.05615549 0.050193876 0.03215731 -0.013784416 0.08283107 0.10533662 0.07080981 -0.018803762 0.096189305 -0.047238458 -0.015491775 0.05689877 0.036257833 -0.09742359 -0.0687988 0.1490733 0.048030835 0.13534859 -0.004421564 0.08427538 -0.05133112 -0.05555355 0.15204172 -0.014110148 0.1815083 0.056023516 -0.17511164 -0.08067522 0.11081147
algorithm -0.106510855 0.07363636 -0.10909472 -0.13299215 -0.08939157 -0.14910278 0.045826893 0.025135385 -0.1401124 -0.11121627 0.09348985 -0.1972409 -0.09772827 0.019127456 0.017561754 -0.10762494 0.14716032 -0.23797864 0.030944457 -0.045853514 0.047650073 0.06602761 0.13243055 0.049210373 -0.09533791 0.07517849 -0.10276736 -0.17235176 -0.036636177 -0.11199411 -0.045280825 0.06840429 0.082733855 0.027490208 -0.030915216 0.21686555 0.0054867123 -0.019109715 -0.18476728 -0.1866103 -0.112828776 -0.089302756 0.031631842 0.05849261 0.039031617 -0.0031342274 0.09732311 -0.09195846 0.015731534 0.06536971 -0.095332146 0.07200704 0.12737532 0.07063 0.14455234 -0.021142436 -0.0073757023 -0.060865503 -0.13443345 -0.0033424222 0.027834577 0.0368863 -0.022618547 0.06696853 -0.1234073 0.0372829 0.012659866 0.14385016 -0.13185835 0.26408932 0.020347146 -0.031825922 0.13912937 -0.020884061 0.07338032 0.15144224 -0.025958693 0.061317176 -0.16825983 -0.029252792 -0.056478232 0.033088874 -0.08522318 0.14900379 -0.025560286 0.042924847 0.03840382 0.21473262 0.0725988 -0.03386835 0.15189064 0.056870244 0.026739681 0.07039628 0.15746121 0.13311367 0.012008646 0.025197037 -0.024690326 -0.044158835
material-design -0.13576864 -0.043633573 -0.045907173 -0.11701762 -0.035639223 -0.23273303 0.07215698 0.05324043 0.07172157 -0.12081024 -0.08100455 -0.03998142 -0.116088666 -0.011869464 0.008271937 -0.082010284 -0.03749381 -0.19774157 0.056223616 -0.055553727 0.02403844 0.022652823 0.06566876 -0.033558648 0.0899255 0.08185506 0.03831302 -0.006786673 -0.18544063 0.0015123433 0.11921428 0.08777279 -0.03368218 -0.047597185 -0.08780155 0.11523185 0.017205387 0.007341768 -0.09205033 -0.1162436 -0.05134097 -0.0043679723 -0.0865774 -0.09736932 0.037561294 -0.10265499 -0.049855217 -0.016749924 0.08207121 0.07854622 0.009624754 -0.048831053 0.06674867 -0.029032025 0.11591295 0.1629082 -0.025043888 0.04343628 -0.13361053 0.045386888 -0.08024095 0.040616557 0.010013834 -0.06553092 -0.10568344 0.057678204 -0.03590782 0.18835981 -0.04943756 0.2090874 -0.03330475 0.1327974 0.17717655 -0.043831795 0.10257196 -0.032547504 -0.02941031 -0.030210504 -0.07129132 0.043274038 -0.09185056 0.13792384 -0.1534339 0.2548016 -0.025970219 -0.093527585 0.086974904 0.2390234 0.024577813 -0.10813265 0.2576231 0.10047057 0.17314595 0.011540968 0.12886028 0.17505917 0.10401954 -0.059433375 -0.06923842 -0.06662777
graphql -0.15713061 0.11161332 -0.0134384055 -0.10382069 0.06786211 -0.17409745 0.09856687 0.112218134 0.008161392 -0.15523262 0.0007296386 -0.12012438 0.07350381 0.085048504 -0.0047998643 -0.07789842 0.082494065 -0.10213293 -0.09226992 -0.1993121 -0.051440116 0.021029666 -0.07249589 -0.048457116 0.08463006 -0.033502005 0.0808141 -0.07727141 -0.14964813 -0.06810923 0.020039566 0.13434318 -0.04447938 -0.08947737 -0.13013792 0.19846086 0.0058789304 -0.011016386 -0.0934266 -0.22780496 -0.025696341 -0.07767164 0.020224268 -0.10525338 -0.0073998114 -0.093795136 0.0314922 -0.06605552 0.063221276 0.10631698 0.0141308475 -0.002493276 0.0040756394 -0.021228308 -0.037058096 -0.0010720675 0.09457029 -0.023575354 -0.16927686 0.12855111 0.087452024 0.02780173 0.080175765 -0.0648101 -0.15738611 -0.07155709 -0.036168795 0.04905139 -0.15497313 0.24391875 0.10989451 0.013964593 0.07462188 0.055616446 0.10537555 -0.0024783248 0.047508776 -0.0039834306 -0.14587672 -0.020344052 0.1064904 0.156307 -0.16245379 0.08338288 -0.05825863 -0.008986884 -0.04657994 0.24111736 0.01609737 0.008193701 0.2423991 0.07951788 0.11556025 0.064578444 0.019637207 0.0987662 0.08872819 -0.1508095 0.08247022 -0.08856718
security -0.006466671 -0.061703883 -0.12207737 -0.1376791 0.06690393 -0.20905346 0.18354389 0.09075817 0.101566166 0.0048547494 0.13635305 0.03370531 -0.14517182 -0.12825976 -0.09187665 -0.015784632 0.112145126 -0.05976312 -0.045642618 -0.058507293 -0.06447197 -0.097256206 0.08871878 -0.13137986 0.0008100747 -0.06350782 0.09519573 -0.13657372 -0.043289002 -0.099565096 0.15948096 0.005935752 0.07727773 0.019016337 0.07654945 0.04728894 -0.030548979 -0.1373997 0.012537807 -0.20126 0.059240382 -0.09581428 0.08596871 -0.07997594 0.06678013 -0.01730358 -0.12371553 0.10029765 0.024449712 0.1438264 -0.035423033 0.043141536 0.07024991 0.09488343 -0.09195999 0.18471074 0.11336433 0.037872188 -0.0016788022 0.13787276 0.043769352 -0.008535809 0.08705413 -0.014101422 -0.037814494 0.13954768 -0.05448947 0.15369044 -0.20435204 0.11935517 -0.13288386 0.07708308 0.04956395 -0.041226648 0.18257384 -0.057760824 0.030055298 -0.06080826 -0.15306373 -0.059741974 -0.11362996 0.1839728 -0.1640514 0.20716184 -0.123278156 -0.035235643 0.086393744 0.017961886 -0.00039277566 -0.14615197 0.004191663 0.005733541 0.021552168 0.102729075 0.11440056 -0.019488692 0.042948253 -0.0752282 -0.08889205 -0.09684893
tensorflow -0.11643373 -0.07401283 -0.08287184 -0.0860213 0.0024590192 -0.22227257 0.07194927 0.19196753 0.041993696 -0.16880706 0.0689702 -0.1609446 -0.038970876 0.07294112 -0.04487606 0.08859611 0.04616337 -0.07897633 0.049907535 -0.22629407 -0.07448321 -0.07254672 0.012571711 -0.06629294 0.00047932184 -0.07265733 -0.011947337 -0.09107923 -0.027900927 -0.09050767 -0.003382492 0.14573342 0.12416496 -0.046308517 -0.048607618 0.06768663 0.04301001 -0.13549069 -0.14786303 -0.13359743 -0.009977761 -0.027180867 -0.12013697 0.012316376 0.08990128 -0.06776821 -0.009748573 0.042881113 -0.008006672 0.059353728 0.0050269356 -0.011134626 0.0680269 0.05399972 0.09094971 0.107236005 0.078804664 -0.053888097 0.008588234 0.12990713 -0.07602728 -0.0049812477 0.12127063 0.03350659 -0.21042489 0.03512839 0.05528856 0.16680938 -0.008697846 0.074220106 0.09365711 -0.059080344 0.12909395 0.059069406 0.057673663 -0.042492144 0.08107128 -0.11219285 -0.18608417 0.024952326 -0.069122665 0.15842082 0.019958211 0.1650543 0.007061002 0.08196723 0.10232467 0.18610126 0.13089424 0.019976191 0.1933881 0.1404754 -0.007702074 0.18753394 0.21388046 0.19151846 0.012593065 -0.076692455 0.00017652617 0.037130166
mysql -0.16266224 0.0023875483 0.06404415 0.084402524 -0.052772205 -0.117327794 0.17378893 0.09468327 -0.013499762 -0.18703291 0.01336769 -0.041140534 0.012913799 -0.095095724 -0.06874785 0.028370757 0.06240264 -0.16408017 0.034430187 -0.10372197 -0.09015141 0.09188623 -0.05171444 -0.017577054 0.08241904 0.022300623 -0.061778102 -0.07462413 -0.13259962 -0.07615705 -0.056761775 0.1373985 -0.062032674 0.012032836 -0.10143293 0.1748199 -0.012887778 -0.11230179 -0.01837648 -0.22957179 0.0043967674 -0.10860007 -0.08397611 -0.07371041 0.13974743 -0.058240376 0.039085 -0.11729049 0.07173799 0.04090909 -0.10119412 -0.053713724 -0.051185712 -0.06161748 0.003434001 0.048611347 -0.058328725 -0.06503561 -0.013628785 0.07400925 0.049877275 0.06469962 0.1379203 -0.058523934 -0.19801487 0.034206532 -0.032815073 0.21694385 -0.0037577702 0.15514515 0.07820058 0.11104728 0.109840594 0.015811043 0.17366995 0.06460915 -0.063213624 -0.10590663 -0.12475496 0.033771865 0.08196574 -0.02456238 -0.085826 0.23308091 -0.09430792 -0.10028569 0.06870117 0.08698731 0.029619822 -0.10287193 0.14352216 0.13763103 0.106446564 0.18469341 0.21316518 0.1398127 0.044847872 0.029081788 -0.095215864 -0.05290448
rust 0.066376664 0.12511994 -0.0823969 -0.1317604 0.107566945 -0.17546639 0.03291812 0.21547124 0.05068259 -0.019176655 -0.018993247 0.05537118 0.10487503 0.11080074 0.12680987 -0.095157996 0.05653957 -0.1251813 0.08064232 0.0254896 0.06848269 0.055183142 0.11405757 0.10039487 -0.009898988 -0.124622606 -0.035176214 0.06657781 -0.15115257 0.010002505 0.099428974 -0.037568476 0.14423148 -0.002420552 -0.00758029 0.23357596 0.05543974 -0.037018064 -0.21267591 0.03226986 -0.15897462 0.06580505 0.0607316 -0.003975906 -0.06093991 0.120428786 -0.024077615 0.06052425 0.00018253824 -0.027556956 -0.026891947 -0.15333773 -0.075181775 -0.16558929 0.10301649 0.06212856 -0.019043319 0.10318887 -0.080595426 -0.039471734 0.036840346 -0.06326105 0.054882936 0.12809756 -0.1027915 0.11811359 0.11886579 0.07477133 -0.15517113 0.2568773 0.028309211 0.019867856 0.07108281 -0.1073797 0.1299241 -0.0047076424 0.08629767 -0.08829121 -0.096661575 0.08939807 -0.112329364 0.02022775 -0.19262797 0.15037209 -0.033227205 0.025618346 0.058846734 0.11948729 0.10197372 -0.049885407 0.20745249 0.015102404 -0.0200831 0.003012159 -0.03352218 -0.047460478 0.12537019 0.030362587 -0.08286031 -0.15236446
node -0.15855442 0.054473013 -0.10289672 0.044709783 0.04793069 -0.08836901 0.040504146 0.17106025 -0.09657032 -0.006855101 -0.046675563 -0.125206 0.025702817 -0.00436497 0.039093833 -0.05935955 0.11095103 -0.25336692 0.047549367 -0.1671502 -0.08153642 -0.003559232 0.007316798 0.0027863218 -0.0295351 -0.10289629 -0.09737479 -0.17626385 -0.19970872 -0.059845634 0.13740999 0.07698141 -0.05824354 -0.103070006 -0.016352614 0.115977205 0.0232033 -0.11658203 -0.019760469 -0.25393525 -0.09627425 -0.010558563 -0.10252145 0.021775227 0.07777608 0.08953255 0.040942654 0.0064521725 0.09281741 0.09113333 -0.016036073 -0.06504822 0.08351905 0.041500743 0.13314086 0.07126393 -0.012029702 0.09811787 -0.1678568 0.093937725 -0.087986454 0.096353956 -0.034661848 0.00947468 -0.030970428 0.0037168625 -0.029236112 0.08585169 -0.07058798 0.107452534 0.07329546 0.029282408 0.17240204 -0.048604377 0.03520243 -0.0031790072 0.025131982 -0.0776196 -0.051423196 0.0022577837 -0.06386883 0.0960124 -0.12878352 0.07835942 -0.14496094 -0.04026766 0.058484703 0.20509566 0.1736982 0.03404188 0.23281185 0.092085324 0.003855247 0.21778542 0.14816561 0.1606373 0.095149815 0.019514786 0.06496972 -0.095567256
json -0.10486414 0.0018817664 0.028775873 -0.12344895 0.038591895 -0.089340225 0.09951344 0.06487443 -0.12872763 0.003518618 -0.10314666 -0.17116769 0.027789347 -0.100569434 -0.055388227 -0.031783454 0.021505354 -0.19475123 0.034495946 -0.11469114 0.030374441 -0.019174779 0.10582609 -0.10925182 0.062209323 -0.050979473 0.01343664 -0.16320412 -0.11121046 -0.090144545 -0.021025922 0.19972202 0.057758328 -0.0058848625 -0.12111287 0.1814443 -0.06890375 -0.080684565 -0.15155987 -0.21272579 0.020023951 -0.1150109 0.012780079 0.043518215 -0.012057661 -0.041473284 -0.03648251 -0.13938905 -0.07041273 0.065941304 0.01772092 -0.026207054 -0.027757011 0.01923741 0.04601679 -0.054773066 0.07952512 0.119892254 -0.15512115 0.07034178 0.066569805 -0.0035475185 0.048063815 -0.072774775 -0.027667014 0.10949093 0.077048466 0.08759972 -0.102866694 0.08862743 -0.1199622 0.123501286 0.059728976 -0.043063905 0.17117475 -0.05971581 0.09304342 -0.11428584 -0.15666041 0.09666128 -0.04599824 0.020986257 -0.13901477 0.0928118 -0.10340527 -0.06826923 0.16158326 0.2430817 0.06839843 -0.037843674 0.06564303 0.16251351 0.0065391823 0.1666275 0.23058075 0.15470074 0.085960396 0.03385077 0.08415845 -0.05271422
ruby -0.041610822 0.09383448 0.08595488 -0.011068413 0.020869147 -0.18497375 -0.06673251 -0.0011157787 -0.10075812 -0.05605169 -0.057453852 -0.060364917 0.096829146 0.14462946 0.1094301 0.03446071 -0.008334134 -0.042393815 -0.05188457 -0.2157592 0.094039045 -0.12896504 0.067875326 -0.05322941 -0.090022214 -0.0094070425 -0.1038017 0.07356865 -0.1588742 -0.14214143 0.09664991 0.123790175 0.08837808 0.021044636 -0.087643534 0.0050348733 0.047429744 0.08091767 -0.13885242 -0.12558527 0.016428163 0.051121887 -0.10499041 -0.06746002 0.0066642296 0.0025401087 0.076706894 0.06677989 -0.096527554 0.1476441 -0.06349814 -0.059892315 -0.11057076 -0.103089 0.1636806 0.09082028 -0.1205494 0.063361995 -0.14782687 -0.07758387 0.04985519 0.056646608 0.052724704 0.11778328 0.018159283 -0.05934244 0.07092163 0.13566375 -0.020152548 0.22304024 -0.10139686 -0.015154986 0.05712067 0.069257244 0.044724777 0.14868909 -0.05651104 -0.14915162 -0.17012925 -0.03805534 0.14078866 -0.029604713 -0.12066509 0.22097152 -0.16195132 0.01718847 0.11677097 -0.017134279 0.046985123 -0.05961603 0.17646635 -0.021288786 -0.055507734 0.2187221 0.016985843 0.174319 -0.05696139 0.077230744 -0.051890068 -0.12344579
algorithms -0.09774942 -0.027069967 -0.018939614 -0.02977077 -0.097844005 -0.19662198 0.08581507 0.21929507 0.032915622 -0.110991746 -0.052361414 -0.035499386 -0.13681708 0.028052628 0.02263653 -0.030774316 -0.00071748503 -0.22821571 -0.114541 -0.071705714 0.020591512 -0.010252015 0.14115827 -0.08970029 -0.0040263003 -0.00039378722 -0.09961229 -0.20437667 -0.019898735 -0.053521678 -0.05966276 0.19251461 -0.023935368 -0.06116374 -0.035225384 0.10888841 -0.053083416 -0.10842717 -0.18956308 -0.1467522 -0.07106769 -0.08768852 0.008336325 -0.027424121 0.18271902 0.064773366 -0.0034649274 -0.031049939 0.06824335 0.14404917 0.06217968 -0.053141784 0.018938214 -0.072816975 0.039849725 0.005587588 -0.025447074 -0.06993278 -0.06783798 0.1168311 0.027596878 0.002382684 0.12378491 -0.1091401 -0.009791537 0.031196386 0.08667894 0.22326857 -0.093519576 0.19560757 0.012304438 -0.08141065 0.04357371 -0.055919334 0.0005923854 0.092231154 0.07340656 -0.048590988 -0.030095441 0.034715787 -0.0071770544 0.14246793 -0.1699442 0.0846487 0.0025574514 -0.100181796 0.1536769 0.21996456 0.010521939 0.0489276 0.22908796 0.01168149 -0.019112501 0.019167803 0.19025715 0.17074066 0.090817004 -0.027253067 -0.10354199 -0.06527859
es6 -0.026014136 -0.08796067 -0.09217649 -0.00050167815 -0.11123388 -0.20378709 0.15308762 0.1966338 -0.10476846 -0.001060609 0.101761624 -0.031192252 -0.07377357 0.111054145 -0.09772877 -0.050579395 0.06097595 -0.18781237 -0.11975893 -0.096815445 0.06948971 -0.054804903 -0.025960157 0.05110649 -0.0016840681 -0.090213545 0.065057464 -0.11652525 -0.048152838 0.02227163 0.122127205 0.17002499 0.09787256 -0.11375687 -0.034743458 0.106744446 0.040467 0.038310852 -0.014893888 -0.22193038 0.094954535 -0.082114615 -0.013323749 0.044815186 -0.0033337697 -0.01860244 0.014797329 0.057064824 0.09085429 0.03340558 -0.1175733 -0.072756976 0.121966384 -0.12312089 0.12325361 0.06174142 -0.011975651 0.12235241 0.039132353 0.16520315 0.083031505 -0.06665915 0.1236846 -0.123049825 -0.17923771 -0.071726315 0.0766468 0.21474178 -0.15239833 0.10641094 -0.025797978 -0.012301151 0.053699814 0.017573828 0.1254547 0.015756557 -0.01620301 -0.04765225 -0.13027528 0.07027381 0.09980546 0.14529763 -0.14129384 0.070203945 -0.17087021 -0.077443555 0.07938805 0.06751749 0.09826066 0.05971753 0.16806468 0.07797723 0.15152952 0.15997571 0.108118996 0.02199692 0.082584105 0.043520916 0.07954309 -0.04666996
php 0.09826566 0.038389377 0.08441816 -0.09494724 0.05353765 -0.08809939 -0.07522427 0.15268482 -0.16205871 -0.1661049 0.0460135 0.08936142 -0.057838243 0.11215242 0.06705024 0.061753146 -0.069654875 0.0072951717 -0.1437016 -0.15523505 0.0772957 -0.12839735 0.10389178 -0.048392136 -0.004907589 -0.104741335 -0.10314653 -0.10595644 0.07500857 0.07530686 -0.13975269 -0.04486068 0.07110561 -0.14966808 0.07014275 0.17787682 -0.123355374 0.10061188 0.07218536 -0.12381637 0.019444903 -0.1480029 0.08513297 0.12081097 0.11135341 -0.15496054 0.072207406 -0.06307894 -0.0011811116 0.13509747 0.0015276201 0.05880713 -0.07288132 0.06360898 -0.038337182 0.03839756 0.095401816 0.08048066 0.07781258 -0.0072104614 0.050868805 0.13580875 -0.019546214 0.07511004 -0.22226834 0.1548962 0.092878155 0.18811537 0.018757388 0.17123039 -0.053680353 -0.07973769 0.009417127 0.00047784054 0.01161377 -0.09355226 -0.08693862 0.11248654 0.08088168 0.11609521 -0.065596186 0.05604567 -0.1737284 0.20111734 -0.045367453 0.10392169 -0.052991167 0.046183113 0.09303398 0.025696432 -0.01019834 -0.07165349 0.0773944 -0.07556505 0.17485459 0.14896604 0.0059145144 -0.11628804 -0.12710114 -0.03838527
command-line 0.0063563157 0.0018759127 -0.08935333 0.08971072 -0.11857254 -0.072157204 0.18055724 0.12896599 -0.13323766 -0.017724192 -0.09388346 -0.14680761 0.082717344 -0.09360091 -0.099590555 -0.06250947 0.08567569 -0.0916293 -0.083285466 -0.17209521 0.08962903 0.11085301 0.13866319 0.022212306 0.041414224 0.02628392 0.012321452 -0.025896505 -0.0606849 -0.0053838748 -0.0138264485 0.011564582 0.11686504 -0.10102548 -0.016876306 0.11701788 -0.0057309046 -0.11459397 -0.043612286 -0.20837161 -0.09828735 -0.104420826 0.037229683 0.07107685 0.052071273 0.0635709 -0.09309573 -0.08083424 -0.03847783 -0.014754516 0.056835294 -0.14008905 -0.07054061 -0.14089707 0.13184114 0.033961374 0.0113903005 -0.04919737 -0.09217564 0.08376803 -0.039265774 -0.05383286 -0.018850494 0.010219416 -0.21927014 0.03967741 0.031133896 0.24726786 -0.08812645 0.22134632 -0.08752684 -0.056494717 0.13113736 -0.024253003 0.031788766 0.023031093 0.12678106 -0.13002102 -0.1460886 0.05455481 -0.00816006 0.1782758 -0.08716575 0.06260372 -0.17093311 -0.1309786 -0.043570623 0.07271806 0.007230502 -0.04861806 0.13874227 0.019414824 0.08739947 0.1397709 0.23879392 0.043610338 0.16371332 0.05228991 -0.04481899 -0.09586566
compiler -0.10402688 -0.082161106 0.083236285 0.110579625 0.08725315 -0.2210698 0.15371682 0.16200846 0.044577945 -0.1817241 0.002643469 -0.1560899 -0.1367183 0.041028954 0.10994505 0.0700035 -0.054479215 -0.066966236 -0.071819946 0.016747022 -0.1235782 0.11716857 -0.067526795 -0.07688075 0.014212139 -0.011627141 -0.10906992 -0.08035655 -0.079751216 -0.08814787 0.09758589 0.11083103 0.13057943 0.06959448 -0.12579565 0.1603689 0.09742161 0.02375469 0.0068815127 -0.1738819 0.047023788 -0.049132723 -0.015945656 -0.08284457 0.07382319 0.052675847 -0.115897685 0.09233603 0.08352453 0.047999773 -0.070656724 -0.023567494 0.10135807 0.03658468 -0.053636096 0.1538972 -0.01038227 -0.082046226 0.060204394 0.13547572 0.03956586 0.12846754 -0.04942133 -0.09771893 -0.11512585 -0.032397747 0.024679124 0.11456944 -0.1810458 0.1383299 0.032262113 0.016324015 0.11984068 -0.010861693 0.14971508 0.017826237 0.12564161 -0.03892645 -0.0456823 -0.020955008 0.077197894 0.09377256 -0.047283355 0.22654384 -0.16374467 0.1084953 0.04779188 0.07863497 0.017307458 -0.14568181 0.08532082 0.09261815 0.13538092 0.19613558 -0.0058931 0.18505584 -0.031976596 0.020612065 0.103447445 -0.036473505
webpack -0.15500782 -0.054627053 0.010442027 -0.02062792 -0.0972302 -0.14773014 0.15389986 0.18044378 -0.0021945036 -0.08943336 -0.067589074 -0.06065647 -0.0034812388 -0.05190702 -0.035470888 -0.008616071 0.05419118 -0.15234257 -0.0703875 -0.16627009 0.013653563 -0.008892157 0.03434238 0.026799897 -0.041608248 -0.046756566 0.06023339 -0.18021128 -0.12977201 -0.019351883 -0.025826223 0.12031551 0.09165033 -0.044266503 -0.0023434206 0.15619269 -0.0030868766 -0.085278064 -0.0972211 -0.12659629 0.041754607 -0.059224654 -0.064686015 -0.054655403 0.12767987 -0.009601485 0.036666524 -0.022020597 0.120133325 0.0052499645 0.025357792 -0.10000612 0.026504312 0.01206306 -0.03367251 0.115515806 -0.054421786 -0.02193005 -0.05908413 0.1190301 -0.028579937 0.10023884 0.01572847 -0.024917053 -0.07168241 0.043705698 0.019587336 0.21571718 -0.14586002 0.18559182 0.018470457 0.09469282 0.1442499 -0.08108081 0.17907567 0.026806878 0.07873924 -0.088652276 -0.18493621 0.03475836 -0.061004575 0.059721995 -0.08322133 0.17985176 -0.16833621 -0.06816112 0.0043602046 0.1713468 0.1369445 -0.05111146 0.24981755 0.060250666 0.14116722 0.16664039 0.22187395 0.11213926 0.123469345 -0.031632762 -0.076866545 0.05752299
monitoring -0.11194176 0.086323105 0.029443238 0.0122665325 -0.036316663 -0.258195 0.13444753 0.15523188 -0.1410435 -0.14790681 -0.02015513 -0.14952588 0.010498919 0.027980087 0.029039007 -0.07421858 -0.019024763 -0.07667987 0.05091419 -0.08268271 0.03502415 -0.08534616 0.11839594 -0.06838778 -0.09021544 0.109758295 -0.027451124 -0.19254102 -0.1287592 0.0527643 -0.0115150185 0.15042655 0.02777703 0.020421432 -0.03996328 0.03083297 -0.0057331263 0.037090883 -0.070355505 -0.217561 0.06499096 -0.0048178765 0.05759499 -0.0035747404 -0.020978615 -0.059710693 0.054861944 -0.09259878 0.16263169 -0.04799468 -0.13261922 -0.09113068 0.09729214 -0.11520883 0.11976345 -0.03735001 0.03408931 0.06687231 -0.069475874 0.19357005 0.050806012 0.03723764 0.11088218 0.04774282 -0.083504565 0.1320345 0.043325186 0.07329378 -0.13538161 0.1424294 -0.0846579 0.01693363 0.16169386 -0.091881044 0.15003051 0.10506522 0.009965521 -0.016873388 -0.044971794 -0.027989544 0.038581196 0.17141347 -0.103988595 0.069252886 -0.177719 -0.11619015 0.09520548 0.20685844 0.15609391 -0.061480843 0.16214922 0.10961357 -0.033387177 0.004586134 0.18696481 0.006340286 0.07582107 -0.08783721 0.059176806 -0.042976316
bash 0.032616355 0.005471102 -0.05507905 -0.052620966 -0.010798581 -0.2038424 0.2015759 0.22482972 0.016012775 -0.18462765 -0.06910175 -0.08894725 -0.040200587 -0.062526286 0.07115978 0.06570796 0.005492215 -0.100912936 0.03686863 -0.112665154 0.08432488 -0.013284614 -0.05497192 -0.0021287212 -0.105461024 0.12110395 -0.11043896 -0.1073451 -0.12812299 0.02495698 0.07770012 0.001925118 -0.02443334 -0.031064734 -0.0052439347 0.19641198 0.019463424 -0.07397704 -0.17381836 -0.10222754 -0.097112216 -0.05068662 -0.05976385 -0.08770494 0.15538959 -0.025832362 -0.115161926 -0.12860958 0.057514556 -0.030661244 0.0030501236 0.01068102 0.07149276 -0.0908809 0.11828954 -0.029486662 0.07908378 0.01661203 -0.0867784 0.13449304 -0.041388143 -0.013561036 0.03414188 -0.09227343 -0.12635234 -0.035804626 0.11084521 0.054932944 -0.14525343 0.056316294 -0.11016125 0.027430894 -0.019338135 -0.10611055 0.12655869 0.039222986 0.0569059 0.070254 -0.22153068 0.1122521 -0.095238715 0.14741364 0.018734587 0.25217572 -0.17516704 0.020827563 -0.03592651 0.1392021 0.02298373 -0.13614543 0.21186633 0.12829445 0.022195853 0.022787634 0.1798664 0.059911165 0.005592811 -0.0900665 -0.027097972 0.093478136
devops -0.15065902 0.08286013 0.07058827 -0.06656143 -0.041726317 -0.17280366 0.15025482 0.11947979 -0.06675904 -0.19731386 0.07008261 -0.1949471 -0.13152646 0.024044007 0.013671002 -0.009730384 0.04978866 -0.09552054 0.0005672362 -0.0604591 -0.051934566 -0.08496923 -0.062268253 0.09444 0.008277705 -0.061053615 0.06264931 -0.000660139 -0.0067481166 -0.08431387 -0.027950985 0.07185642 -0.04155467 0.023386603 0.009918502 0.064132206 0.114839524 -0.14159751 -0.011454451 -0.19904178 0.0105669135 -0.121654116 0.015756506 0.08472027 0.05655108 -0.073861204 -0.097045116 0.019678874 0.10387666 0.13344155 -0.084213786 -0.1350338 0.11048243 -0.080019556 0.07760837 0.15976103 -0.046706047 0.038759194 -0.10645179 0.016518544 -0.07535124 0.035962943 -0.030669056 -0.05223487 -0.13917972 0.099533126 0.07476705 0.22346391 -0.052195385 0.112903826 -0.06557573 0.13759117 0.14835955 -0.13766116 0.15065439 0.14536999 0.120563515 -0.11302459 -0.12934823 0.05216142 0.029590016 0.059262 -0.118432604 0.22616968 -0.0036407737 -0.023552328 -0.016107038 0.099556684 0.030471958 0.0051233703 0.15831453 0.052379023 -0.030399011 0.083424434 0.20531937 0.16643934 0.14994116 -0.068073705 0.100246206 -0.0014699871
programming -0.07715078 0.07391941 -0.0728171 0.05140545 0.079051584 -0.119782776 0.16442917 0.17693166 -0.059914917 -0.19370688 0.01822103 -0.08342073 -0.11056219 0.027184328 0.043188047 -0.08804539 0.0789453 -0.044959154 -0.11577155 -0.111486346 -0.11274998 -0.0915811 0.10620577 -0.07097106 -0.024618177 -0.08073382 -0.09396334 -0.17573784 -0.09156131 0.009744887 -0.056225214 0.013362334 -0.0027331063 -0.05014267 -0.11949866 0.09336935 0.0710229 -0.028873088 -0.010367841 -0.116891995 -0.02319514 -0.0610787 0.08083143 0.019179633 0.09989349 -0.0072959834 -0.10558526 0.03636807 0.11470863 0.06350686 0.05927843 -0.10067331 0.07217942 -0.118297875 -0.06584629 0.09849779 0.045311663 0.09116393 -0.16782159 0.14614986 0.015713375 0.08246905 0.05380786 0.03454519 -0.041441254 -0.06315214 -0.045493547 0.25038746 -0.11090261 0.06562476 -0.050661765 0.046270024 0.17087708 -0.055602882 0.09198564 -0.017553601 -0.06074182 -0.013959892 -0.12059814 -0.04026348 0.0072310963 -0.019944126 -0.10344376 0.2119699 -0.070985384 0.06375297 0.12919612 0.15060842 0.14705406 0.023339963 0.25557187 0.17988838 0.12634568 0.16246057 0.22230516 0.08647663 0.055495176 0.052967366 0.011281906 -0.06360277
dashboard -0.091308944 -0.03671372 0.0740924 0.01739592 0.008480336 -0.096870534 0.18082507 0.08829012 -0.08228562 -0.13151047 -0.028156444 -0.16182728 -0.035201333 -0.058418967 0.05286788 -0.032899857 0.00020594506 -0.18602423 -0.048636775 -0.21709134 -0.010028105 0.0315754 -0.0009366744 0.07034758 -0.0265845 -0.049242806 -0.02900426 -0.112228975 -0.15259086 -0.08877067 -0.0053044003 0.082476206 0.062598184 -0.0815562 -0.09279259 0.1416677 0.019940993 -0.037241865 -0.098580405 -0.115951434 0.05234209 -0.14832933 0.007769051 0.04200377 0.06887426 0.032357056 -0.045477305 -0.057224303 -0.002901361 0.13504775 -0.11433812 -0.056129493 0.034178995 -0.06842539 0.10479043 0.0214824 -0.07049559 0.09879098 -0.12762079 0.16252196 -0.038688213 0.078138776 0.054915164 -0.059676267 -0.17441656 -0.026276233 0.11337274 0.21639864 -0.093832575 0.207435 0.031915665 0.060802206 0.09658909 -0.1139016 0.16174836 -0.0026484544 -0.0034144442 -0.013962742 -0.07404278 -0.030895526 0.0049283374 0.1233292 -0.13576719 0.22674036 -0.12551531 0.05153056 0.0017821454 0.20153505 0.15831164 -0.11875658 0.15177178 0.015142202 0.13179287 0.18406016 0.09161247 0.10175587 0.09671409 -0.099004984 0.0049713673 -0.08275779
microservices -0.04765549 -0.07407486 0.059341736 0.06481336 -0.046190754 -0.17380129 0.006911268 0.16677946 0.00045932905 -0.001935882 0.033476 -0.11105424 0.0030304114 0.09642819 0.081412464 0.06920287 -0.045718007 -0.1923322 0.052147258 -0.21375865 0.017429443 0.07909449 -0.011673988 0.08032364 -0.09612914 0.07128089 0.051913634 -0.05067655 -0.16961636 0.088021085 0.1135824 0.064902455 0.07149378 0.039363008 -0.06825428 0.17574571 -0.006082089 -0.064538054 -0.08590909 -0.18046872 -0.016629945 -0.16412736 0.01625167 0.08949457 0.11507718 0.051641084 -0.052262504 0.033537187 -0.01592894 0.0045082797 0.068755 0.037940755 -0.017873289 -0.08635692 0.09746463 0.09722713 0.060583483 -0.050733533 -0.070696466 0.074076414 -0.010832431 0.05703285 -0.021700958 0.020871028 -0.13083433 0.11001173 0.044831645 0.24291693 -0.09390937 0.19285129 -0.084412575 -0.06206829 0.06460625 -0.05921601 0.19007215 0.09959227 -0.039051715 0.057021182 -0.088496 -0.065320775 0.056923233 0.04197334 -0.16280109 0.2298147 0.0059484043 0.071682744 0.048712853 0.21616945 0.13253143 -0.11192353 0.23462126 0.03249939 -0.04111783 0.18145862 0.06932227 0.17417298 0.017283354 0.059377883 -0.05705914 0.032074045
spring-boot 0.015609684 0.0444669 -0.023111654 -0.0627058 -0.12174343 -0.09588001 0.18738165 0.076283604 0.028603619 -0.02478844 -0.08439876 -0.06427778 -0.10110899 -0.03913216 -0.009724787 -0.07752694 0.008447141 -0.1969593 -0.08722682 -0.21227139 0.08492586 0.0788791 0.025999414 -0.01659866 0.049929813 0.022123456 -0.097421825 -0.15716554 -0.07947093 0.07271531 0.05525396 0.1888407 0.09901102 -0.027365161 0.036680013 0.21636981 0.11188694 0.03678615 -0.17138232 -0.10830252 -0.08946637 -0.15866692 -0.10474563 0.025395472 0.07408914 -0.082856454 0.05318313 0.063533165 0.09364326 0.13734393 -0.08056644 -0.09427033 0.07073227 -0.05559382 -0.04483826 0.10909183 -0.043864682 -0.028858138 -0.036639098 0.15530956 0.05475831 0.03750943 0.14073142 0.003821056 -0.045322083 0.013930609 0.07600945 0.22114451 -0.18650575 0.2055571 0.0098122945 0.093303 0.058187038 -0.066432044 0.03093933 0.023201 -0.008800806 -0.07840997 -0.09242085 0.11953638 0.049072556 -0.010194667 -0.14054321 0.12190131 -0.0363011 -0.11483074 0.10928468 0.17709512 0.053234268 0.05143349 0.23159547 0.078144595 0.11840926 0.009742911 0.0441416 0.06291942 0.19852786 -0.0035941093 0.055963207 -0.07341548
editor -0.012910334 0.009023497 -0.0053215083 -0.054350805 0.049918476 -0.24359702 0.16208534 0.18122442 -0.056985453 -0.14193733 -0.097693585 -0.15830925 -0.09342676 0.045404334 -0.08093377 -0.025732387 -0.07975558 -0.14991726 -0.028941387 -0.22631985 0.029841052 0.12993132 0.077338696 0.032249775 -0.07274139 -0.009897408 0.026588595 -0.055123467 0.039754834 -0.019628553 0.11382813 0.1511919 0.0640157 0.07309604 -0.109586686 0.057123315 0.12395121 0.06492781 -0.024021441 -0.18254977 0.0962129 -0.036524933 -0.021420363 0.12105856 0.11451295 0.033761162 -0.0068175797 -0.13675208 0.0054067844 0.084432274 -0.10465526 0.07038304 0.1326808 -0.14625865 -0.05348094 -0.018832425 -0.011578979 -0.008194503 -0.08034243 0.042542584 0.039458506 0.16279654 -0.019316716 -0.13363335 -0.045485806 -0.06597825 0.1354431 0.17133829 -0.18534483 0.02288872 -0.1255733 0.06446409 0.09989306 0.005928416 0.08599688 0.06097272 0.06156405 -0.04205979 -0.19620396 0.026599608 0.05030572 0.030085906 -0.08626688 0.097982295 0.0264198 -0.05563396 0.1693184 0.06853941 -0.06504434 -0.12097082 0.066524945 0.08249043 0.1254913 0.11342759 0.23769026 0.09706693 0.15982208 -0.032315504 -0.029734943 0.07572702
spring -0.05831252 0.0988118 -0.09655081 -0.11490728 -0.028390968 -0.17107137 0.09306628 0.12735574 -0.09513438 -0.19591945 0.096409924 -0.13496985 -0.06704798 -0.011803343 -0.037499826 -0.120638534 0.028353225 -0.1426734 0.0768199 -0.24514723 -0.073029794 -0.023161521 0.062027972 -0.055330794 -0.08094121 -0.08715212 0.061350923 -0.1963831 -0.13937706 -0.005685079 0.046033874 -0.021479953 0.13109465 -0.0560297 -0.052930232 0.033205517 -0.058612756 -0.017726706 -0.040401284 -0.12066599 0.05973727 -0.17546636 -0.03819544 -0.042339172 0.054277405 0.035661824 0.010347358 -0.10549082 0.096648596 0.13086046 -0.10941391 0.0016871169 -0.014994084 0.07219703 0.076152645 0.10274262 -0.022552274 -0.08200017 0.03482216 0.07569148 0.07922178 0.081216976 -0.039737273 -0.034977574 -0.08565036 -0.0009986279 0.17421167 0.108964406 -0.18580127 0.20329739 -0.045172002 -0.04514311 0.10491183 0.014741647 0.037924018 0.010918345 -0.06321747 -0.0055026603 -0.16594192 0.14116079 0.0034965505 0.09553768 -0.11393646 0.24769627 -0.09186258 -0.11252257 -0.03522542 0.15758657 0.18052171 -0.010815393 0.09865497 -0.0017767755 -0.043424625 0.15185414 0.027317666 0.13481261 0.13094515 -0.050932497 -0.1167984 0.062840864
git -0.040078934 -0.15616088 -0.11403875 0.12809505 0.014808809 -0.20335451 0.043972325 0.14782302 -0.16485761 -0.1537265 -0.018138565 -0.19860253 -0.012399788 0.03213691 0.12610163 0.015745144 0.04171587 0.014590346 -0.07679065 0.03446889 -0.006049097 -0.010260189 -0.13685301 0.020494947 0.09373776 0.030927163 -0.1244042 -0.100639716 -0.14082925 0.0877197 -0.08406704 0.13472289 -0.06613583 -0.1194135 -0.14665897 0.12684241 -0.11580448 -0.122154474 -0.15431933 -0.14353305 -0.06729248 -0.019653017 0.08915694 -0.017031398 -0.04340894 0.008766001 0.08506322 -0.09534504 -0.050622247 0.10604637 0.077697515 -0.13480605 0.14654653 -0.17384021 -0.09894712 -0.054991845 0.026027944 0.0101215765 0.024745615 0.15367344 0.07052881 -0.032642968 -0.07402517 -0.14245063 -0.06265323 0.16252413 -0.099381775 0.14481215 0.023078138 0.009173502 -0.10873958 -0.06563948 -0.04570836 -0.124149315 0.14301774 -0.08967645 -0.02909892 0.04888244 -0.05310777 -0.0948736 -0.07308867 0.08691136 0.0049218447 0.048204947 -0.0567087 0.03205954 0.043346077 0.039055265 0.13105574 -0.13531452 0.17921188 -0.115053795 0.0024527232 0.16018333 0.017134963 0.15280226 0.14049758 -0.1300595 -0.0006867478 -0.08025931
angular -0.15564613 -0.0060089068 0.0652835 0.078415744 -0.07274633 -0.15701443 0.038027063 0.12551078 0.0032255822 -0.19172063 0.0231553 -0.17213182 -0.023833212 0.055338807 -0.0724016 -0.0058732447 0.021001427 -0.20249888 -0.04440701 -0.07946061 -0.101346195 -0.064835966 0.01601537 0.088893756 0.009035545 0.106217146 -0.08322528 0.014300785 -0.13178329 -0.07616691 -0.05958887 0.099844985 -0.001316282 0.052977085 -0.053334776 0.14522812 0.09438911 -0.14726324 -0.09315273 -0.18416873 -0.1033418 -0.04012198 0.0067503923 -0.031243738 0.040756978 -0.09708186 -0.03814853 -0.0033100334 0.13110662 0.12681909 -0.07401617 0.011515825 0.00897168 -0.07467724 -0.008766505 -0.00055572914 0.039461568 -0.058587126 -0.13915469 0.032818694 0.07127958 0.054498415 0.107292436 0.06639497 -0.1718351 -0.021706708 0.13560624 0.19667733 -0.039020002 0.23395586 0.09363802 -0.0029153225 0.077219844 0.025626956 0.17585191 0.15164982 -0.067923054 -0.07036262 -0.04514778 0.044155426 0.00014490007 0.14830063 0.009097559 0.06445024 -0.09701628 -0.1060745 0.12188504 0.16308647 0.04946258 -0.016481241 0.2198945 0.15438679 0.12590541 0.12327828 0.14086929 0.17612012 0.10869699 -0.033794373 -0.1008505 0.022015817
c-plus-plus -0.1611825 0.07409339 -0.065202095 -0.030043632 -0.01245537 -0.1397439 -0.013651388 0.14804421 -0.103176534 -0.18130466 0.044582058 -0.07822269 0.04812693 -0.07426333 -0.0029437037 -0.010799726 0.10399491 -0.20566352 0.053317107 -0.21641271 -0.10013201 0.0010394192 -0.012527851 -0.042161025 -0.07191699 0.05893107 -0.11666711 -0.05915938 -0.02317312 -0.009830738 0.016098939 0.15527426 -0.07454681 -0.1250159 0.009684746 0.20786169 -0.06030627 -0.14130455 -0.07403508 -0.22501136 0.010659592 0.038119253 -0.084096044 -0.075556666 0.16531286 -0.02432993 -0.04589591 -0.049356706 -0.055242557 -0.0025722613 -0.07524265 -0.018921789 0.036858752 0.062826 0.097373396 0.042514864 -0.120570354 0.04825185 -0.12477842 0.17677331 0.034475703 0.018219627 0.119185835 -0.057392437 -0.13199575 0.020832524 0.13669576 0.19448695 -0.053924005 0.16823298 -0.042515032 0.12993883 -0.022669602 -0.06250754 0.01821356 0.14247918 -0.021538394 -0.044621654 -0.0011786975 -0.07312452 -0.033961553 0.09024688 -0.13040318 0.22144672 -0.04204503 -0.07735548 0.10191656 0.20690702 0.0761439 0.045525067 0.042198695 0.019765563 0.16398999 0.14902705 0.12913966 0.035321966 0.13278988 -0.0056249495 0.09417424 -0.009605065
animation 0.09017538 -0.09186658 -0.11575313 -0.027092826 0.035904348 -0.101307265 0.14848101 -0.07236794 -0.15453048 0.06958093 0.09644753 -0.10649254 -0.083135225 -0.0526645 -0.010636771 0.14165919 0.03726283 -0.092416845 -0.06854046 -0.10165536 -0.1532058 0.11134995 -0.13032481 -0.044144437 -0.11589301 0.14765662 0.08533112 -0.051507607 0.013896066 -0.039178684 0.16500162 -0.015659265 0.09159785 -0.07611167 0.12498695 0.21177472 0.11449612 -0.029286006 -0.060991775 -0.2120645 0.1414267 -0.17999654 -0.11381213 0.08478363 0.0036848078 0.11936533 -0.12746668 0.13927153 0.062147357 -0.10528295 0.041433737 -0.09357344 0.11842892 0.08726873 -0.12578194 0.14099331 0.07959583 0.11347279 -0.14410242 -0.058174722 -0.14630641 0.101839766 -0.036987882 0.06316335 0.01979589 0.13850577 0.06349905 0.064507075 -0.02174664 0.12170232 -0.13822886 -0.07585554 0.024806522 0.055590812 0.04375513 -0.12298122 -0.0007335356 0.10113614 0.048209704 0.068748854 -0.072446406 -0.024817633 -0.061774127 -0.021366468 -0.17239197 -0.016725121 0.05208589 0.14899047 0.09220177 0.11215126 -0.031865273 0.18224409 -0.021506973 0.064682156 -0.0030252768 -0.016499512 0.024961887 -0.13466907 0.13805898 0.07100824
redux -0.06854777 0.03127937 0.11929626 -0.08820191 0.04513003 -0.04943239 0.092005275 0.023827733 -0.15842697 0.045241963 -0.01982023 -0.16022353 -0.0024120393 -0.08918024 0.10850443 -0.10095477 -0.0057329056 -0.059443362 -0.07562992 -0.11107384 0.10482772 0.024203448 -0.13360243 -0.0010248774 -0.14423664 -0.04318214 0.0719012 0.017392885 -0.1255431 0.018084014 0.09380746 -0.076665565 -0.03869139 -0.047779936 -0.1569345 0.08500465 0.11049329 0.011168706 0.0047541596 -0.07065308 -0.01712312 -0.12969783 -0.01503458 0.09845604 0.07573419 0.0014163725 0.11680392 0.033801463 -0.09069577 0.13568988 0.12730938 -0.14726138 0.12219298 -0.12704244 0.0085300775 0.097987674 -0.0893709 -0.10803072 -0.13706589 -0.11067238 -0.106427886 0.1592261 0.066054896 -0.14855245 0.07994644 0.116666235 0.14179215 0.21128936 -0.1679819 0.032379266 0.030323343 0.0505882 0.105259 -0.13324976 0.10894072 0.16974531 -0.1247072 0.106873386 0.005758159 -0.048330426 -0.025373217 -0.09729669 -0.13974231 0.14547132 -0.08036755 0.14368857 -0.099489465 -0.04467251 0.12836911 0.098754406 0.115260616 0.13937314 0.12779425 -0.044372547 0.18940954 -0.056909334 0.0042946846 -0.104437046 0.08830849 -0.06967087
data-science -0.047901202 -0.016459854 -0.009213367 -0.07862744 -0.09872122 -0.17775747 0.10455927 0.13201131 -0.072768524 -0.07714822 -0.06335113 0.045427956 -0.04119763 -0.08251416 -0.040667024 0.09880306 0.029689305 -0.17504852 -0.11841457 -0.19947007 -0.057634406 0.09092171 -0.069241606 0.016064346 -0.01029388 0.06432742 -0.11181524 0.01548465 -0.119404845 0.057450384 -0.089582354 0.14393793 -0.07018603 -0.0659789 -0.064508855 0.072090186 0.01901163 -0.047140554 -0.015162542 -0.1669152 -0.05699188 -0.15295623 0.07962151 0.051906537 0.18394014 0.05654923 -0.06453055 0.08320003 -0.037885346 0.09113761 -0.07085138 -0.023580773 0.07503865 -0.060583074 -0.032949246 0.039090827 -0.0024386493 0.101567544 -0.13664815 0.13932346 -0.05919759 -0.06403903 -0.012415768 -0.0029920083 0.0015559917 0.1165425 0.1647236 0.23086889 -0.10667085 0.1066648 0.102335565 0.11038735 0.13683468 0.053611368 0.1081299 0.076264486 -0.085812286 0.06575176 0.021145692 -0.05055467 0.015176835 0.1774696 -0.013062758 0.22274643 0.0274799 -0.042031657 0.15432596 0.20602618 0.050544836 -0.036891192 0.25190416 0.14060327 -0.02131307 0.057688724 0.07857053 0.12530994 0.10595352 -0.14834729 0.024241151 0.11088656
vim -0.011466223 0.06245489 0.031473357 0.11945453 0.12366294 -0.03988879 0.02982322 0.13196093 -0.13589597 0.06992845 -0.060395457 0.09887115 -0.1679545 -0.030385219 0.12786533 -0.06967567 -0.002917976 0.0020457814 0.12853152 -0.09301584 -0.11462055 0.15376362 -0.13478032 0.023420889 0.08536127 -0.11832729 -0.08900175 -0.1961578 -0.057530012 0.071763486 -0.11111521 0.010190902 0.14722885 -0.0883167 0.021918098 0.13755164 -0.032246288 -0.117047794 0.07868683 -0.12561274 0.1333688 -0.09135549 0.033341058 0.08258269 0.052053995 0.058266737 -0.09178746 0.122479364 0.0073810983 -0.02929633 0.055955023 0.1331076 -0.06571451 0.00053209247 0.084288925 0.003623192 0.004815019 0.152844 0.08285381 -0.04370929 -0.05479939 0.16133338 0.028627811 -0.16185401 -0.08567895 -0.09419651 0.051675964 0.11215726 -0.12964001 0.025572937 0.1358516 0.09263326 0.083794296 0.0040640538 0.18459536 -0.041590415 0.1112127 -0.032127086 -0.1873784 -0.123520926 -0.026780918 0.17028415 -0.0074807582 -0.047128607 -0.03403893 -0.06653371 -0.03406211 0.21559909 0.14038558 -0.016828049 0.12838534 0.05957621 -0.11010237 0.11257953 0.19599512 0.12284477 0.10478332 -0.07529888 0.030284885 -0.1218823
tutorial -0.009005607 0.0315215 -0.0060590017 -0.014997712 0.012895285 -0.08172831 0.110748634 0.22750813 0.021202268 -0.06181204 -0.038557347 -0.15393545 -0.1521484 -0.03823177 0.04122076 0.09766128 0.046998344 -0.16332185 0.030903505 -0.16498892 -0.025492853 0.11824183 0.12841104 -0.0003827935 -0.08593819 0.05543399 0.12733245 0.04576365 -0.10440219 0.09062986 0.14734228 -0.05604784 0.1467037 -0.022156892 -0.116002895 0.1561819 0.1511845 -0.14574194 0.030882362 -0.20732394 -0.11563163 0.0077252095 -0.08263082 0.06291548 0.16407688 0.12106952 0.077306874 -0.13464417 0.089353316 -0.07495012 -0.035766475 0.10799759 -0.04406249 0.029698504 -0.053854015 -0.05158846 0.103613496 0.063248426 0.044636264 0.1109842 0.0039795213 0.084059075 -0.069768675 0.06730955 -0.1564934 0.081555486 -0.029788481 0.14733066 -0.016615165 0.08629047 -0.1013116 -0.05589969 -0.075755104 0.1079476 0.014180532 0.029309565 -0.10768361 -0.0846368 -0.149482 0.07218796 0.07726325 0.10712798 0.07936965 0.14945528 0.07355998 0.08358295 0.08030668 0.14814529 -0.033387035 -0.06570342 0.19703668 -0.04676491 0.08781634 -0.014499345 0.24293806 0.081055455 0.09725374 -0.09733496 0.08554239 -0.1031341
testing -0.15652925 0.07990625 -0.03719552 -0.022935081 0.043500178 -0.07412974 0.17341326 0.19192597 0.039701786 -0.19140665 0.062754214 0.027723966 -0.075142 0.016236477 -0.051299978 -0.05098096 0.14282292 -0.10773281 0.018963344 -0.1870744 0.05601335 -0.038948804 -0.03998051 0.031358905 0.10636683 -0.067765884 0.037613124 -0.09174683 -0.1651368 -0.059061985 -0.07457711 0.14408223 -0.0038173697 -0.09112901 -0.032974284 0.16954084 0.14158282 -0.1673664 -0.07361129 -0.1434813 -0.0393669 -0.08048201 0.078520596 -0.022741495 0.16909103 -0.013268002 -0.014944736 0.062121164 0.12914985 0.057405986 -0.033452906 0.044944767 -0.014501522 0.028793516 0.018216865 -0.008059116 0.072453514 -0.028451359 -0.030348275 0.0025762364 0.026083125 0.09695584 0.107572414 -0.11746149 -0.17194483 0.109238066 0.08234673 0.15231945 -0.15682139 0.115624584 -0.11272848 0.04372983 0.013106595 -0.024903638 0.13667198 0.07858149 -0.061210852 -0.01083689 -0.17469387 -0.010432181 0.017412286 0.1596295 -0.13385354 0.15818828 0.022444956 0.10050886 0.11259132 0.041818723 0.11733856 0.068312086 0.18118961 0.09631282 0.038604647 0.12995213 0.17031631 0.18902975 0.04685106 -0.13583711 0.07810849 -0.07944103
cross-platform -0.0939404 0.01964852 -0.0059146793 -0.053272683 -0.017195974 -0.2518435 0.13758355 0.09828386 -0.08706429 -0.06842022 0.015310179 -0.056979824 -0.0252794 -0.08915744 0.07954791 -0.04524833 0.03176426 -0.058118273 -0.02106738 -0.12628855 0.008253312 0.021082507 0.08659916 0.10237654 -0.016606767 -0.025902858 0.038274486 -0.17885958 -0.014799587 0.013850863 0.08720858 0.1266431 0.015905224 -0.023031088 -0.10645459 0.23175062 0.08607129 -0.030544251 -0.13500087 -0.24672446 0.068286695 -0.0637996 -0.06813995 -0.08984495 0.035755206 -0.011507918 -0.09441977 -0.024767332 0.08443108 -0.034152728 -0.041837987 -0.09767304 -0.00040418893 -0.04588203 -0.068176836 0.043054078 -0.073771834 -0.04737899 -0.051571157 0.118367285 0.08201267 0.12633166 -0.0045988113 -0.116406694 -0.042854544 0.08188321 0.13188937 0.1413501 -0.15288538 0.12140906 -0.08880156 0.09617621 0.04395136 0.040600367 0.045025516 0.15368374 -0.021164099 0.057743125 -0.17019837 -0.034626156 0.07276825 -0.018001912 -0.16291007 0.21666907 -0.18405887 0.031989783 0.09118126 0.08469969 0.11792012 -0.031540487 0.24696739 0.10738103 0.023121824 0.08627783 0.21831088 0.036200155 0.20605226 -0.07435212 -0.04436444 -0.050515354
http -0.025153233 -0.13663746 0.048085462 -0.07197873 0.11593119 -0.19426969 -0.013699608 0.15547547 0.096319236 -0.04759293 -0.03418808 -0.027182832 -0.15110143 -0.05431985 -0.07610836 0.020244295 -0.04961943 -0.2118627 -0.10690744 -0.04936694 0.029046157 0.118073635 0.053659525 0.080670506 0.05004006 0.07204934 -0.07780207 -0.054762058 -0.07242984 0.063571356 -0.07312205 0.07126599 0.07826128 -0.09097986 -0.16472246 0.18733755 0.016171675 -0.044939395 -0.15532176 -0.0028602197 0.0041106264 -0.046744324 -0.022082303 0.009501075 0.14271855 -0.15004747 0.028472817 -0.100113735 0.1813769 0.114048585 -0.11358069 -0.042198747 -0.046596244 0.0927412 0.1548385 0.09145464 0.13108467 -0.04474995 -0.018974204 0.0041659037 -0.13125902 -0.027904905 0.027351918 -0.101643555 -0.16184649 0.030136941 0.043664165 0.019221373 0.01888271 0.1515061 -0.14232825 0.0071643223 -0.044816546 0.07256926 0.06456841 0.15576859 0.088056944 -0.08071402 -0.21693034 -0.052692946 0.12179526 0.037574656 -0.064903095 0.13234289 -0.18651567 0.044664595 -0.072092146 0.2586288 -0.041885823 0.075814925 0.100868255 0.034254275 0.030568497 0.10403563 0.15193085 0.1046426 0.082240604 0.07269197 -0.089313686 -0.119062886
postgresql -0.16168937 0.06951675 -0.008891966 -0.052618004 0.023780936 -0.23287551 0.16071478 0.2237186 0.033388294 -0.14436896 0.027093206 -0.050428 0.0584247 -0.028541593 -0.009550013 -0.04470199 0.018140696 -0.12059057 -0.0050563295 -0.20775625 0.020234663 -0.05555381 -0.019330027 -0.07718905 0.06437084 0.055357166 -0.029104337 -0.0117091285 -0.08924921 -0.110243864 -0.058724005 0.060328424 -0.044398427 0.045268174 -0.004014378 0.15996535 0.022251759 -0.1364119 -0.031674426 -0.21508619 -0.032222673 -0.15856022 -0.048817374 -0.094511025 0.1206399 -0.091219604 0.06403487 -0.09916553 -0.00033941003 0.07166413 -0.12662385 0.01685243 -0.005996064 -0.0307107 0.10553843 0.11152865 -0.015256462 0.104989275 -0.07494916 0.1541305 0.04958011 -0.049677294 0.080761254 -0.12354411 -0.1412161 0.10978042 0.039961603 0.13678564 -0.07022271 0.23951979 0.068071105 -0.027195036 0.15715963 0.03292558 0.043723445 0.054598078 0.01650286 -0.12468559 -0.14243197 0.140531 -0.027921716 0.0013101746 -0.108606435 0.064533174 -0.067913346 0.038971003 0.06720192 0.12711155 0.18234366 -0.14379665 0.11761914 -0.020542096 0.17354824 0.101210766 0.09309701 0.022668237 0.20118676 -0.06531163 -0.060768142 0.028309789
rest -0.16818051 0.11445284 0.08319373 -0.06513186 -0.06281869 -0.13541135 0.01039018 0.17644452 0.018283699 -0.035850853 -0.10586848 -0.0943327 -0.11185048 0.07652337 0.09824226 -0.015077354 -0.045590043 -0.06945065 -0.03288248 -0.122828454 -0.09170545 -0.012947379 -0.0076718433 0.10186747 -0.10205157 -0.038433652 -0.018889027 -0.1340105 -0.0268041 -0.017838467 -0.0048960005 -0.006897708 -0.08658472 -0.009092803 -0.06648718 0.020417864 0.12905246 0.022414695 -0.009292159 -0.19463211 -0.012557014 0.0013644773 -0.10057659 -0.08776633 -0.018533062 0.028334072 -0.111491434 -0.0052056774 0.15694414 0.08199163 -0.15809596 0.06719828 0.10429596 -0.13405842 0.09740748 0.17700432 0.06905203 -0.027195703 0.0044354172 0.03549196 -0.099967316 0.082142286 -0.0054525365 -0.0490344 -0.17967725 -0.064508736 0.03749048 0.18489775 -0.086015984 0.25273216 0.044277854 -0.08402146 -0.03278509 -0.059402682 0.07393836 -0.016249303 0.12847537 0.025066324 -0.20384412 0.11199052 -0.017595243 -0.014238837 -0.07064154 0.24472047 -0.15124485 -0.06520668 0.026087074 0.21850178 0.15036505 -0.13503452 0.055764195 0.07438079 0.10816654 0.14391786 0.18384835 0.10401593 0.09992855 0.004527256 -0.005759624 0.059575144
documentation -0.075080656 0.102430604 -0.04377675 0.0213112 0.014297228 -0.21890523 0.21810953 0.18412893 0.023580449 -0.11764986 0.112193435 -0.04342307 -0.050596483 0.04714072 0.04802654 0.08112169 0.06848482 -0.107191235 -0.057879906 -0.20259663 -0.11588255 -0.02251658 -0.0069013843 0.03648369 -0.012656606 0.025406314 0.053195585 -0.16189525 -0.0131775495 0.063531764 0.09762821 0.110083744 0.024910938 -0.016265156 -0.13805048 0.06479807 0.056636486 -0.065995134 -0.03381512 -0.20259708 0.044957586 -0.12176678 0.055288855 -0.039006475 0.026917752 0.0036436375 -0.020653535 -0.05243585 0.015732313 0.15123168 -0.13931008 0.024739709 -0.0006926187 0.08158742 0.07094967 0.09585723 -0.038667135 0.0073207445 -0.13273813 0.0661293 0.061514385 -0.066368155 0.0916298 0.020658055 -0.030358199 -0.015993942 0.116562925 0.052715696 -0.08774049 0.24729563 0.03881883 -0.021871958 0.03909069 -0.13381524 0.09727247 0.109461665 -0.062487572 0.036850203 -0.15510605 0.100842126 0.06167407 0.09763335 -0.083120085 0.045351952 -0.14321315 -0.01081234 -0.064163454 0.2547425 0.118840486 -0.053532537 0.25051013 0.033254687 0.08166728 0.118705936 0.22334374 0.13258578 0.070315585 -0.08693457 -0.092285834 0.05640242
wechat 0.042356797 0.09698571 0.08957359 -0.14605711 0.12941566 -0.18433475 0.064620316 0.060395926 0.0946722 -0.17551678 0.047052808 -0.1285504 -0.016062625 0.11217607 -0.14444093 0.14004715 -0.11096618 0.04435621 -0.1281971 -0.16282097 -0.12201283 0.0862648 -0.029458687 0.02674748 -0.13386945 0.14424388 0.04418769 -0.108557805 -0.09111795 0.106966175 0.05672998 -0.09652756 0.06558553 -0.09351771 0.003740772 0.17698444 -0.0011268186 -0.025081934 0.04660151 -0.15232007 0.046718247 0.01752589 -0.15277837 -0.055899505 0.14946271 0.01934811 0.13538575 -0.032308802 0.14816858 -0.09010943 0.055654075 -0.14071743 0.05600696 0.10506247 -0.020610366 0.14255835 -0.14187281 -0.0025923566 0.02767747 -0.035316415 0.1021113 -0.08991084 0.0068927244 0.11750183 0.06032122 0.023715524 0.16506815 -0.06656847 -0.08972748 0.10915836 -0.035849433 0.0921204 0.14387923 -0.076762885 0.012304284 0.16440362 -0.08159289 -0.13701373 -0.060756534 -0.09173573 0.010214277 0.065915294 -0.14594752 0.058854565 -0.106518365 -0.04641038 0.059478283 0.12636128 0.00034086598 0.105963945 0.08073711 0.13577525 0.08071926 0.11597328 0.2064662 -0.011675628 0.054024875 -0.07261473 0.061622288 -0.09642493
svg -0.099260785 0.120710604 -0.04355677 0.04523016 -0.012653544 -0.0950587 0.087593585 -0.029275838 0.10709501 0.027845345 -0.14402789 -0.18019725 0.0076631233 0.006706848 -0.05822197 0.12448981 -0.092014275 -0.14357194 0.090412974 -0.1254815 -0.09833794 0.13394544 0.12139346 -0.05588731 -0.11644138 -0.011853465 0.1245652 -0.11095063 -0.005338416 -0.036984637 0.08207423 0.047982655 0.11510849 0.12552124 -0.16533731 0.19683413 -0.08871219 -0.18795721 0.023604179 -0.0872301 0.07451691 -0.2243179 0.10616412 -0.13314712 -0.044364117 0.009015673 -0.068127826 0.020698529 -0.032635536 -0.051316746 0.06118871 -0.057763178 0.12751871 -0.062082313 0.006287163 0.122770734 0.10325045 -0.0019280576 -0.20291784 0.03850089 0.101403065 0.12620798 -0.052022625 0.032332495 0.052768253 -0.09533401 0.050307013 0.14205965 -0.16767782 0.04128399 0.08078605 -0.043008737 -0.008469153 0.0030137543 0.21999623 0.1603449 -0.06734219 -0.062442306 0.05041103 0.038225617 -0.07635938 -0.06827691 -0.13651712 0.20188168 -0.027400715 -0.11275263 0.13364659 0.08654518 0.06484598 -0.10157298 0.17193209 0.0672245 0.08532578 0.025986211 0.06280482 0.068085834 0.02377399 -0.0507504 0.11903209 0.027169582
mobile -0.00032032956 0.049089875 0.027221676 -0.003364824 0.094345555 -0.08031761 0.0019690916 0.22856247 -0.08854052 -0.10560459 -0.12395294 -0.20968665 -0.07803257 0.07874882 -0.0022490656 -0.022990778 -0.031280242 -0.046562165 0.09153735 -0.044421278 -0.02333704 -0.109440774 0.124234766 -0.024416916 0.024965927 0.07026681 0.12181193 -0.10371222 -0.15534136 -0.02242346 0.06835244 0.080036305 0.015231089 0.10472803 -0.029376429 0.05706879 0.16078947 -0.14550734 -0.12088716 -0.07736927 -0.08865252 0.0061882325 -0.108214736 -0.12618876 -0.05475925 0.011122752 0.07988475 0.07925164 0.09588375 0.11560898 -0.04380476 -0.123124495 0.17146716 -0.11704335 0.119968675 0.059146505 -0.018866988 -0.012449144 0.042594794 -0.0049415585 0.014539908 0.043445777 0.065016985 -0.11198619 -0.21854813 -0.08191429 0.001243751 0.15379646 -0.18166615 0.2645215 0.034848552 -0.059679728 0.008563452 -0.11590949 -0.01927681 0.058750615 0.0030745373 0.097189054 -0.050968833 0.02511303 0.12037413 0.0056380187 -0.18706173 0.16790971 -0.1585009 -0.07526403 0.07511866 0.036570657 0.052893016 -0.0019022181 0.17042483 0.057541426 0.05016769 0.22251216 0.17294605 0.064477496 0.032183416 -0.12708579 -0.022891218 -0.052304022
frontend -0.18396638 -0.006185414 -0.04623936 -0.058427345 -0.042215303 -0.1588825 0.18840694 0.16354422 0.06982634 -0.040196188 0.04852021 -0.06627082 0.017801845 -0.0011252211 0.074329965 -0.088170186 0.06445007 -0.07971056 0.08143494 -0.19110662 0.08418622 0.050140418 -0.0425144 0.10440665 -0.055293147 0.08388 -0.1053877 -0.13698192 -0.030758103 -0.021997381 -0.056759108 0.07642284 -0.060028814 0.027039187 0.037582118 0.10861549 0.10267196 -0.09201768 -0.03708953 -0.13191906 -0.106802076 -0.07187044 -0.079547524 0.07642773 0.0050812783 0.06973145 -0.0037333602 0.05481116 0.10901707 0.16443376 -0.035361897 -0.011445087 0.060544748 -0.051503755 -0.003912827 0.115185514 0.087772965 0.10236429 -0.041620497 0.12966962 -0.024401851 0.05103633 0.009730448 -0.09389684 -0.19090694 0.07579965 -0.018506741 0.24894607 -0.1567132 0.14176138 -0.07945767 0.10992556 0.12957694 -0.015979566 0.08243164 0.0061684814 -0.052893624 0.081066884 -0.20117274 0.0934497 0.038326383 0.17817646 -0.040337857 0.17251082 -0.032839086 0.03260118 -0.04816171 0.09370573 0.07926398 -0.03140156 0.19515607 0.04535193 0.044284545 0.14148216 0.17400862 0.19476806 0.19416913 -0.027879603 0.016615368 -0.114350244
lists -0.004014584 -0.04345862 0.040338118 -0.0022959018 0.08590086 -0.05250522 0.20602098 0.121158116 -0.08788467 -0.15228693 -0.094817914 -0.044624973 0.06680335 0.087426916 -0.036564115 -0.0011453128 -0.0416807 -0.021203425 0.052621994 -0.10839264 0.09742544 -0.104936786 -0.08546961 0.11950963 0.05028649 -0.100747555 0.08150614 -0.1264462 -0.059511743 0.026008526 -0.08897192 0.15118578 -0.041580018 -0.08944422 0.03721357 0.1972642 0.12512189 -0.0049798116 -0.049627203 -0.22193757 -0.024416193 -0.086432084 0.0131128775 0.09004952 0.15066059 -0.030534737 -0.06928384 0.06986146 0.15388407 -0.01870695 0.013798349 0.061962236 0.027626138 0.020732861 -0.057764415 -0.05001376 -0.07490707 -0.07060717 -0.15452217 0.12816814 -0.07939261 0.110425115 0.060567908 -0.046730246 -0.20427382 -0.031482063 0.08088337 0.24572939 -0.11282193 0.20833074 -0.043445084 0.14604755 0.04408638 -0.10631349 0.12373907 0.04720272 0.10516964 -0.113786876 -0.066118166 0.07934396 0.093352675 0.04291252 -0.09914588 0.032581974 -0.010885774 -0.0971236 0.1197295 0.22044133 0.14365892 0.053447746 0.064245746 0.17056994 -0.03156395 0.18314007 0.07287386 0.08913783 0.07663973 -0.030070255 0.08670062 0.012334648
